<?xml version="1.0"?>
<opencv_storage>
<stage7>
  <maxWeakCount>7</maxWeakCount>
  <stageThreshold>-5.6827813386917114e-01</stageThreshold>
  <weakClassifiers>
    <_>
      <internalNodes>
        0 -1 3442384 -1.5007546171545982e-03</internalNodes>
      <leafValues>
        6.4062500000000000e-01 -4.2500001192092896e-01</leafValues></_>
    <_>
      <internalNodes>
        0 -1 1425848 5.9408643282949924e-03</internalNodes>
      <leafValues>
        -6.6996103525161743e-01 3.8684418797492981e-01</leafValues></_>
    <_>
      <internalNodes>
        0 -1 139612 1.0858051478862762e-02</internalNodes>
      <leafValues>
        -5.3803861141204834e-01 4.9491187930107117e-01</leafValues></_>
    <_>
      <internalNodes>
        0 -1 348114 -4.4599441025638953e-05</internalNodes>
      <leafValues>
        -7.0193451642990112e-01 3.7803691625595093e-01</leafValues></_>
    <_>
      <internalNodes>
        0 -1 2065206 -4.0983678773045540e-03</internalNodes>
      <leafValues>
        8.9147013425827026e-01 -3.2637083530426025e-01</leafValues></_>
    <_>
      <internalNodes>
        0 -1 1565596 -3.2312024268321693e-04</internalNodes>
      <leafValues>
        7.8381526470184326e-01 -3.7922319769859314e-01</leafValues></_>
    <_>
      <internalNodes>
        0 -1 2827357 1.1624759063124657e-03</internalNodes>
      <leafValues>
        3.8249439001083374e-01 -8.1030869483947754e-01</leafValues></_></weakClassifiers></stage7>
</opencv_storage>
