<?xml version="1.0"?>
<opencv_storage>
<stage13>
  <maxWeakCount>7</maxWeakCount>
  <stageThreshold>8.9599244296550751e-02</stageThreshold>
  <weakClassifiers>
    <_>
      <internalNodes>
        0 -1 3451286 1.0410014539957047e-02</internalNodes>
      <leafValues>
        -1.7948718369007111e-01 7.5824177265167236e-01</leafValues></_>
    <_>
      <internalNodes>
        0 -1 300932 1.5089673921465874e-02</internalNodes>
      <leafValues>
        -2.0931063592433929e-01 8.9101564884185791e-01</leafValues></_>
    <_>
      <internalNodes>
        0 -1 710101 -4.7966167330741882e-03</internalNodes>
      <leafValues>
        3.8073012232780457e-01 -6.8026942014694214e-01</leafValues></_>
    <_>
      <internalNodes>
        0 -1 273485 -3.3383527770638466e-03</internalNodes>
      <leafValues>
        7.8651994466781616e-01 -2.7839913964271545e-01</leafValues></_>
    <_>
      <internalNodes>
        0 -1 2870342 -5.7906312867999077e-03</internalNodes>
      <leafValues>
        6.7890799045562744e-01 -3.1745326519012451e-01</leafValues></_>
    <_>
      <internalNodes>
        0 -1 2440006 -1.3359315926209092e-04</internalNodes>
      <leafValues>
        -1. 3.0494654178619385e-01</leafValues></_>
    <_>
      <internalNodes>
        0 -1 2694361 1.8569367239251733e-03</internalNodes>
      <leafValues>
        -4.8451787233352661e-01 6.9961380958557129e-01</leafValues></_></weakClassifiers></stage13>
</opencv_storage>
