<?xml version="1.0"?>
<opencv_storage>
<stage9>
  <maxWeakCount>6</maxWeakCount>
  <stageThreshold>-5.7025212049484253e-01</stageThreshold>
  <weakClassifiers>
    <_>
      <internalNodes>
        0 -1 51396 -6.8078702315688133e-04</internalNodes>
      <leafValues>
        5.0943398475646973e-01 -6.7346936464309692e-01</leafValues></_>
    <_>
      <internalNodes>
        0 -1 3005250 -2.3243822157382965e-02</internalNodes>
      <leafValues>
        6.9555461406707764e-01 -3.9344754815101624e-01</leafValues></_>
    <_>
      <internalNodes>
        0 -1 399594 1.4494561764877290e-04</internalNodes>
      <leafValues>
        3.7552216649055481e-01 -7.9619008302688599e-01</leafValues></_>
    <_>
      <internalNodes>
        0 -1 3236454 -5.5135456932475790e-05</internalNodes>
      <leafValues>
        -8.5309368371963501e-01 2.7162531018257141e-01</leafValues></_>
    <_>
      <internalNodes>
        0 -1 3498201 -1.0285009921062738e-04</internalNodes>
      <leafValues>
        -8.0052953958511353e-01 3.0189287662506104e-01</leafValues></_>
    <_>
      <internalNodes>
        0 -1 2481585 5.1262006163597107e-03</internalNodes>
      <leafValues>
        -3.6966544389724731e-01 9.1603261232376099e-01</leafValues></_></weakClassifiers></stage9>
</opencv_storage>
