<?xml version="1.0"?>
<opencv_storage>
<stage10>
  <maxWeakCount>7</maxWeakCount>
  <stageThreshold>-5.9958559274673462e-01</stageThreshold>
  <weakClassifiers>
    <_>
      <internalNodes>
        0 -1 192147 -3.1073921918869019e-01</internalNodes>
      <leafValues>
        7.7358490228652954e-01 -3.3333334326744080e-01</leafValues></_>
    <_>
      <internalNodes>
        0 -1 126956 1.3992824824526906e-04</internalNodes>
      <leafValues>
        3.9939814805984497e-01 -7.4601006507873535e-01</leafValues></_>
    <_>
      <internalNodes>
        0 -1 1236599 -1.7781906353775412e-04</internalNodes>
      <leafValues>
        -8.7157297134399414e-01 2.8975132107734680e-01</leafValues></_>
    <_>
      <internalNodes>
        0 -1 679078 -1.0841537732630968e-03</internalNodes>
      <leafValues>
        8.7644755840301514e-01 -3.6728373169898987e-01</leafValues></_>
    <_>
      <internalNodes>
        0 -1 1195314 1.8873852968681604e-04</internalNodes>
      <leafValues>
        3.4317418932914734e-01 -7.5242316722869873e-01</leafValues></_>
    <_>
      <internalNodes>
        0 -1 506037 -1.9341918826103210e-01</internalNodes>
      <leafValues>
        5.9923440217971802e-01 -4.5787042379379272e-01</leafValues></_>
    <_>
      <internalNodes>
        0 -1 585439 -1.4809746295213699e-02</internalNodes>
      <leafValues>
        7.7746635675430298e-01 -4.3492922186851501e-01</leafValues></_></weakClassifiers></stage10>
</opencv_storage>
