<?xml version="1.0"?>
<opencv_storage>
<stage7>
  <maxWeakCount>5</maxWeakCount>
  <stageThreshold>1.1218949407339096e-01</stageThreshold>
  <weakClassifiers>
    <_>
      <internalNodes>
        0 -1 970378 2.0260035991668701e-02</internalNodes>
      <leafValues>
        -6.4285713434219360e-01 5.5263155698776245e-01</leafValues></_>
    <_>
      <internalNodes>
        0 -1 63942 -6.8846292793750763e-02</internalNodes>
      <leafValues>
        3.7386015057563782e-01 -7.4287235736846924e-01</leafValues></_>
    <_>
      <internalNodes>
        0 -1 1082802 -6.4174989238381386e-03</internalNodes>
      <leafValues>
        5.0842279195785522e-01 -6.3121509552001953e-01</leafValues></_>
    <_>
      <internalNodes>
        0 -1 652547 -1.8461351282894611e-03</internalNodes>
      <leafValues>
        7.4396133422851563e-01 -4.8928457498550415e-01</leafValues></_>
    <_>
      <internalNodes>
        0 -1 47526 3.5875511821359396e-04</internalNodes>
      <leafValues>
        3.8200119137763977e-01 -8.3344048261642456e-01</leafValues></_></weakClassifiers></stage7>
</opencv_storage>
