<?xml version="1.0"?>
<opencv_storage>
<stage5>
  <maxWeakCount>5</maxWeakCount>
  <stageThreshold>-4.7822707891464233e-01</stageThreshold>
  <weakClassifiers>
    <_>
      <internalNodes>
        0 -1 367763 -7.0036984980106354e-02</internalNodes>
      <leafValues>
        6.5891474485397339e-01 -4.6835443377494812e-01</leafValues></_>
    <_>
      <internalNodes>
        0 -1 1155488 -2.0101596601307392e-03</internalNodes>
      <leafValues>
        5.1931840181350708e-01 -6.1603158712387085e-01</leafValues></_>
    <_>
      <internalNodes>
        0 -1 1127793 1.4342946233227849e-03</internalNodes>
      <leafValues>
        -5.3242665529251099e-01 5.8813583850860596e-01</leafValues></_>
    <_>
      <internalNodes>
        0 -1 1204167 2.1857835236005485e-05</internalNodes>
      <leafValues>
        -5.8355575799942017e-01 4.7694098949432373e-01</leafValues></_>
    <_>
      <internalNodes>
        0 -1 1085738 -2.5414838455617428e-03</internalNodes>
      <leafValues>
        6.5472847223281860e-01 -4.5891788601875305e-01</leafValues></_></weakClassifiers></stage5>
</opencv_storage>
