<?xml version="1.0"?>
<opencv_storage>
<stage9>
  <maxWeakCount>6</maxWeakCount>
  <stageThreshold>3.8608614355325699e-02</stageThreshold>
  <weakClassifiers>
    <_>
      <internalNodes>
        0 -1 544839 -1.6195755451917648e-02</internalNodes>
      <leafValues>
        1. -9.5890410244464874e-02</leafValues></_>
    <_>
      <internalNodes>
        0 -1 1232957 -4.9955130089074373e-04</internalNodes>
      <leafValues>
        -8.4610462188720703e-01 3.7931087613105774e-01</leafValues></_>
    <_>
      <internalNodes>
        0 -1 1045469 -3.4523764625191689e-03</internalNodes>
      <leafValues>
        9.1113042831420898e-01 -3.3773764967918396e-01</leafValues></_>
    <_>
      <internalNodes>
        0 -1 1107602 7.6313928002491593e-04</internalNodes>
      <leafValues>
        -4.1928291320800781e-01 7.0100229978561401e-01</leafValues></_>
    <_>
      <internalNodes>
        0 -1 29263 2.3048669099807739e-03</internalNodes>
      <leafValues>
        -3.6775574088096619e-01 7.5164663791656494e-01</leafValues></_>
    <_>
      <internalNodes>
        0 -1 685100 -3.9500430226325989e-02</internalNodes>
      <leafValues>
        9.3914562463760376e-01 -2.1592596173286438e-01</leafValues></_></weakClassifiers></stage9>
</opencv_storage>
