<?xml version="1.0"?>
<opencv_storage>
<stage10>
  <maxWeakCount>5</maxWeakCount>
  <stageThreshold>-7.7552700042724609e-01</stageThreshold>
  <weakClassifiers>
    <_>
      <internalNodes>
        0 -1 2337442 2.0076125860214233e-02</internalNodes>
      <leafValues>
        -4.8571428656578064e-01 5.9420287609100342e-01</leafValues></_>
    <_>
      <internalNodes>
        0 -1 1046570 -8.5907066240906715e-03</internalNodes>
      <leafValues>
        5.3759759664535522e-01 -4.6199902892112732e-01</leafValues></_>
    <_>
      <internalNodes>
        0 -1 1803415 -1.0088186711072922e-02</internalNodes>
      <leafValues>
        9.7655612230300903e-01 -2.6205593347549438e-01</leafValues></_>
    <_>
      <internalNodes>
        0 -1 2804298 2.4264489766210318e-03</internalNodes>
      <leafValues>
        -3.1241530179977417e-01 6.6485458612442017e-01</leafValues></_>
    <_>
      <internalNodes>
        0 -1 3112407 -5.3031550487503409e-04</internalNodes>
      <leafValues>
        6.6909879446029663e-01 -3.3325967192649841e-01</leafValues></_></weakClassifiers></stage10>
</opencv_storage>
