<?xml version="1.0"?>
<opencv_storage>
<stage14>
  <maxWeakCount>7</maxWeakCount>
  <stageThreshold>-7.2782367467880249e-01</stageThreshold>
  <weakClassifiers>
    <_>
      <internalNodes>
        0 -1 3443435 -7.3341652750968933e-04</internalNodes>
      <leafValues>
        6.3636362552642822e-01 -3.3333334326744080e-01</leafValues></_>
    <_>
      <internalNodes>
        0 -1 3505998 2.1685358660761267e-05</internalNodes>
      <leafValues>
        -3.6701557040214539e-01 5.8115535974502563e-01</leafValues></_>
    <_>
      <internalNodes>
        0 -1 2642412 2.6246984489262104e-03</internalNodes>
      <leafValues>
        -2.3791302740573883e-01 8.9867955446243286e-01</leafValues></_>
    <_>
      <internalNodes>
        0 -1 452885 -8.2569534424692392e-04</internalNodes>
      <leafValues>
        6.2932062149047852e-01 -4.0338033437728882e-01</leafValues></_>
    <_>
      <internalNodes>
        0 -1 2444133 -1.2047560885548592e-02</internalNodes>
      <leafValues>
        7.2511273622512817e-01 -3.5557785630226135e-01</leafValues></_>
    <_>
      <internalNodes>
        0 -1 3146326 5.2678575739264488e-03</internalNodes>
      <leafValues>
        -3.8335597515106201e-01 6.7151558399200439e-01</leafValues></_>
    <_>
      <internalNodes>
        0 -1 1854527 -7.8067125286906958e-05</internalNodes>
      <leafValues>
        -9.3336176872253418e-01 3.2005146145820618e-01</leafValues></_></weakClassifiers></stage14>
</opencv_storage>
