<?xml version="1.0"?>
<opencv_storage>
<stage6>
  <maxWeakCount>6</maxWeakCount>
  <stageThreshold>-5.6331443786621094e-01</stageThreshold>
  <weakClassifiers>
    <_>
      <internalNodes>
        0 -1 2197934 3.2332097180187702e-03</internalNodes>
      <leafValues>
        -6.9491523504257202e-01 5.9731543064117432e-01</leafValues></_>
    <_>
      <internalNodes>
        0 -1 2678592 -9.0097490465268493e-04</internalNodes>
      <leafValues>
        4.1800510883331299e-01 -7.6375395059585571e-01</leafValues></_>
    <_>
      <internalNodes>
        0 -1 3278539 7.3263572994619608e-04</internalNodes>
      <leafValues>
        -5.5303448438644409e-01 5.4859870672225952e-01</leafValues></_>
    <_>
      <internalNodes>
        0 -1 1333190 -6.0295346193015575e-03</internalNodes>
      <leafValues>
        4.1888526082038879e-01 -7.2380220890045166e-01</leafValues></_>
    <_>
      <internalNodes>
        0 -1 3340436 -6.7543387413024902e-02</internalNodes>
      <leafValues>
        4.5754784345626831e-01 -6.4151942729949951e-01</leafValues></_>
    <_>
      <internalNodes>
        0 -1 667664 3.2413015560450731e-06</internalNodes>
      <leafValues>
        -5.2967703342437744e-01 6.6926091909408569e-01</leafValues></_></weakClassifiers></stage6>
</opencv_storage>
