<?xml version="1.0"?>
<opencv_storage>
<cascade>
  <stageType>BOOST</stageType>
  <featureType>HAAR</featureType>
  <height>60</height>
  <width>60</width>
  <stageParams>
    <boostType>GAB</boostType>
    <minHitRate>9.9500000476837158e-01</minHitRate>
    <maxFalseAlarm>5.0000000000000000e-01</maxFalseAlarm>
    <weightTrimRate>9.4999999999999996e-01</weightTrimRate>
    <maxDepth>1</maxDepth>
    <maxWeakCount>100</maxWeakCount></stageParams>
  <featureParams>
    <maxCatCount>0</maxCatCount>
    <featSize>1</featSize>
    <mode>BASIC</mode></featureParams>
  <stageNum>30</stageNum>
  <stages>
    <!-- stage 0 -->
    <_>
      <maxWeakCount>3</maxWeakCount>
      <stageThreshold>-8.0935269594192505e-01</stageThreshold>
      <weakClassifiers>
        <_>
          <internalNodes>
            0 -1 51 7.6222121715545654e-03</internalNodes>
          <leafValues>
            -7.5757575035095215e-01 6.5625000000000000e-01</leafValues></_>
        <_>
          <internalNodes>
            0 -1 76 8.3099323092028499e-05</internalNodes>
          <leafValues>
            5.7362782955169678e-01 -9.2126125097274780e-01</leafValues></_>
        <_>
          <internalNodes>
            0 -1 14 1.8648490367922932e-04</internalNodes>
          <leafValues>
            -6.2540477514266968e-01 8.4393894672393799e-01</leafValues></_></weakClassifiers></_>
    <!-- stage 1 -->
    <_>
      <maxWeakCount>2</maxWeakCount>
      <stageThreshold>3.6913163959980011e-02</stageThreshold>
      <weakClassifiers>
        <_>
          <internalNodes>
            0 -1 15 -6.0878104704897851e-05</internalNodes>
          <leafValues>
            8.4313726425170898e-01 -5.6521737575531006e-01</leafValues></_>
        <_>
          <internalNodes>
            0 -1 26 -2.5705786538310349e-04</internalNodes>
          <leafValues>
            7.2230583429336548e-01 -8.0622410774230957e-01</leafValues></_></weakClassifiers></_>
    <!-- stage 2 -->
    <_>
      <maxWeakCount>3</maxWeakCount>
      <stageThreshold>-3.0368936061859131e-01</stageThreshold>
      <weakClassifiers>
        <_>
          <internalNodes>
            0 -1 10 -1.0245510376989841e-02</internalNodes>
          <leafValues>
            7.7777779102325439e-01 -5.8139532804489136e-01</leafValues></_>
        <_>
          <internalNodes>
            0 -1 53 -1.0762884630821645e-04</internalNodes>
          <leafValues>
            8.3150857686996460e-01 -5.8088219165802002e-01</leafValues></_>
        <_>
          <internalNodes>
            0 -1 7 1.1327412212267518e-03</internalNodes>
          <leafValues>
            -5.0058490037918091e-01 9.3852478265762329e-01</leafValues></_></weakClassifiers></_>
    <!-- stage 3 -->
    <_>
      <maxWeakCount>2</maxWeakCount>
      <stageThreshold>-3.2906621694564819e-02</stageThreshold>
      <weakClassifiers>
        <_>
          <internalNodes>
            0 -1 27 -9.5301687717437744e-02</internalNodes>
          <leafValues>
            8.4905660152435303e-01 -6.3636362552642822e-01</leafValues></_>
        <_>
          <internalNodes>
            0 -1 12 -3.5645271418616176e-04</internalNodes>
          <leafValues>
            -8.8196325302124023e-01 6.2848854064941406e-01</leafValues></_></weakClassifiers></_>
    <!-- stage 4 -->
    <_>
      <maxWeakCount>3</maxWeakCount>
      <stageThreshold>-1.9735053181648254e-01</stageThreshold>
      <weakClassifiers>
        <_>
          <internalNodes>
            0 -1 60 -1.5824731672182679e-03</internalNodes>
          <leafValues>
            7.5510203838348389e-01 -4.1666665673255920e-01</leafValues></_>
        <_>
          <internalNodes>
            0 -1 71 -2.4994776595121948e-06</internalNodes>
          <leafValues>
            7.3848861455917358e-01 -4.7901019454002380e-01</leafValues></_>
        <_>
          <internalNodes>
            0 -1 61 4.4490199070423841e-04</internalNodes>
          <leafValues>
            -4.7344237565994263e-01 9.2878049612045288e-01</leafValues></_></weakClassifiers></_>
    <!-- stage 5 -->
    <_>
      <maxWeakCount>3</maxWeakCount>
      <stageThreshold>-2.5265493988990784e-01</stageThreshold>
      <weakClassifiers>
        <_>
          <internalNodes>
            0 -1 42 3.8954809308052063e-02</internalNodes>
          <leafValues>
            -4.3478259444236755e-01 7.2549021244049072e-01</leafValues></_>
        <_>
          <internalNodes>
            0 -1 73 8.0517923925071955e-04</internalNodes>
          <leafValues>
            -4.1748628020286560e-01 8.6786884069442749e-01</leafValues></_>
        <_>
          <internalNodes>
            0 -1 38 6.8006513174623251e-05</internalNodes>
          <leafValues>
            -5.6065887212753296e-01 7.9346072673797607e-01</leafValues></_></weakClassifiers></_>
    <!-- stage 6 -->
    <_>
      <maxWeakCount>3</maxWeakCount>
      <stageThreshold>-2.1530494093894958e-01</stageThreshold>
      <weakClassifiers>
        <_>
          <internalNodes>
            0 -1 8 1.1982050491496921e-03</internalNodes>
          <leafValues>
            -4.4680851697921753e-01 7.5999999046325684e-01</leafValues></_>
        <_>
          <internalNodes>
            0 -1 20 -5.0416798330843449e-04</internalNodes>
          <leafValues>
            7.7402806282043457e-01 -4.8110681772232056e-01</leafValues></_>
        <_>
          <internalNodes>
            0 -1 11 2.9987856396473944e-04</internalNodes>
          <leafValues>
            -4.9419811367988586e-01 8.6922287940979004e-01</leafValues></_></weakClassifiers></_>
    <!-- stage 7 -->
    <_>
      <maxWeakCount>1</maxWeakCount>
      <stageThreshold>4.8051947355270386e-01</stageThreshold>
      <weakClassifiers>
        <_>
          <internalNodes>
            0 -1 79 3.8818432949483395e-04</internalNodes>
          <leafValues>
            4.8051947355270386e-01 -1.</leafValues></_></weakClassifiers></_>
    <!-- stage 8 -->
    <_>
      <maxWeakCount>5</maxWeakCount>
      <stageThreshold>-2.6201805472373962e-01</stageThreshold>
      <weakClassifiers>
        <_>
          <internalNodes>
            0 -1 2 1.2837510439567268e-04</internalNodes>
          <leafValues>
            5.0684928894042969e-01 -8.3333331346511841e-01</leafValues></_>
        <_>
          <internalNodes>
            0 -1 18 -5.4452457698062062e-04</internalNodes>
          <leafValues>
            8.4399861097335815e-01 -5.1141273975372314e-01</leafValues></_>
        <_>
          <internalNodes>
            0 -1 30 6.0445582494139671e-04</internalNodes>
          <leafValues>
            -4.4513612985610962e-01 8.0681753158569336e-01</leafValues></_>
        <_>
          <internalNodes>
            0 -1 25 1.3746825978159904e-02</internalNodes>
          <leafValues>
            -3.7966334819793701e-01 9.7821646928787231e-01</leafValues></_>
        <_>
          <internalNodes>
            0 -1 3 -3.0585739295929670e-04</internalNodes>
          <leafValues>
            -9.6063035726547241e-01 5.6734484434127808e-01</leafValues></_></weakClassifiers></_>
    <!-- stage 9 -->
    <_>
      <maxWeakCount>4</maxWeakCount>
      <stageThreshold>2.5048613548278809e-01</stageThreshold>
      <weakClassifiers>
        <_>
          <internalNodes>
            0 -1 81 -6.6441934905014932e-06</internalNodes>
          <leafValues>
            -6.6666668653488159e-01 5.5223882198333740e-01</leafValues></_>
        <_>
          <internalNodes>
            0 -1 44 -1.2674301862716675e-01</internalNodes>
          <leafValues>
            9.2127788066864014e-01 -4.4310867786407471e-01</leafValues></_>
        <_>
          <internalNodes>
            0 -1 63 5.3418101742863655e-04</internalNodes>
          <leafValues>
            -5.7761865854263306e-01 7.3414796590805054e-01</leafValues></_>
        <_>
          <internalNodes>
            0 -1 17 -2.4356483481824398e-04</internalNodes>
          <leafValues>
            7.8852409124374390e-01 -5.9279197454452515e-01</leafValues></_></weakClassifiers></_>
    <!-- stage 10 -->
    <_>
      <maxWeakCount>4</maxWeakCount>
      <stageThreshold>-3.6896574497222900e-01</stageThreshold>
      <weakClassifiers>
        <_>
          <internalNodes>
            0 -1 36 -4.2170328088104725e-03</internalNodes>
          <leafValues>
            1. -2.3076923191547394e-01</leafValues></_>
        <_>
          <internalNodes>
            0 -1 78 9.5842369773890823e-05</internalNodes>
          <leafValues>
            -4.4589704275131226e-01 7.4716091156005859e-01</leafValues></_>
        <_>
          <internalNodes>
            0 -1 46 -6.9028637371957302e-03</internalNodes>
          <leafValues>
            8.6931848526000977e-01 -4.4409427046775818e-01</leafValues></_>
        <_>
          <internalNodes>
            0 -1 70 1.5607789464411326e-05</internalNodes>
          <leafValues>
            -4.7897440195083618e-01 8.8145726919174194e-01</leafValues></_></weakClassifiers></_>
    <!-- stage 11 -->
    <_>
      <maxWeakCount>3</maxWeakCount>
      <stageThreshold>-4.5420423150062561e-01</stageThreshold>
      <weakClassifiers>
        <_>
          <internalNodes>
            0 -1 6 3.6960067518521100e-05</internalNodes>
          <leafValues>
            4.9333333969116211e-01 -9.0909093618392944e-01</leafValues></_>
        <_>
          <internalNodes>
            0 -1 62 -6.6414114553481340e-04</internalNodes>
          <leafValues>
            8.2795786857604980e-01 -5.4350000619888306e-01</leafValues></_>
        <_>
          <internalNodes>
            0 -1 85 2.3625665926374495e-04</internalNodes>
          <leafValues>
            -4.0403756499290466e-01 9.0629065036773682e-01</leafValues></_></weakClassifiers></_>
    <!-- stage 12 -->
    <_>
      <maxWeakCount>3</maxWeakCount>
      <stageThreshold>3.4463664889335632e-01</stageThreshold>
      <weakClassifiers>
        <_>
          <internalNodes>
            0 -1 72 1.1436024215072393e-04</internalNodes>
          <leafValues>
            4.5454546809196472e-01 -8.9999997615814209e-01</leafValues></_>
        <_>
          <internalNodes>
            0 -1 19 -1.2006642646156251e-04</internalNodes>
          <leafValues>
            -7.9934710264205933e-01 4.7649997472763062e-01</leafValues></_>
        <_>
          <internalNodes>
            0 -1 84 1.4936386833142024e-05</internalNodes>
          <leafValues>
            -5.8315926790237427e-01 7.6813662052154541e-01</leafValues></_></weakClassifiers></_>
    <!-- stage 13 -->
    <_>
      <maxWeakCount>3</maxWeakCount>
      <stageThreshold>4.4329208135604858e-01</stageThreshold>
      <weakClassifiers>
        <_>
          <internalNodes>
            0 -1 35 3.7263520061969757e-04</internalNodes>
          <leafValues>
            5.1351350545883179e-01 -9.1304349899291992e-01</leafValues></_>
        <_>
          <internalNodes>
            0 -1 34 -9.2496182769536972e-03</internalNodes>
          <leafValues>
            8.8547623157501221e-01 -5.9152907133102417e-01</leafValues></_>
        <_>
          <internalNodes>
            0 -1 9 -3.1851949170231819e-03</internalNodes>
          <leafValues>
            -8.5721170902252197e-01 5.2130758762359619e-01</leafValues></_></weakClassifiers></_>
    <!-- stage 14 -->
    <_>
      <maxWeakCount>5</maxWeakCount>
      <stageThreshold>-1.1426311731338501e-01</stageThreshold>
      <weakClassifiers>
        <_>
          <internalNodes>
            0 -1 29 1.6126195259857923e-04</internalNodes>
          <leafValues>
            4.2500001192092896e-01 -1.</leafValues></_>
        <_>
          <internalNodes>
            0 -1 43 3.8690693327225745e-04</internalNodes>
          <leafValues>
            -5.1554667949676514e-01 8.1215858459472656e-01</leafValues></_>
        <_>
          <internalNodes>
            0 -1 82 1.0910833952948451e-04</internalNodes>
          <leafValues>
            -4.4983425736427307e-01 9.2027658224105835e-01</leafValues></_>
        <_>
          <internalNodes>
            0 -1 68 1.5438748232554644e-04</internalNodes>
          <leafValues>
            -4.5842501521110535e-01 9.0155106782913208e-01</leafValues></_>
        <_>
          <internalNodes>
            0 -1 39 1.5768498997204006e-05</internalNodes>
          <leafValues>
            -4.4316244125366211e-01 9.4762194156646729e-01</leafValues></_></weakClassifiers></_>
    <!-- stage 15 -->
    <_>
      <maxWeakCount>2</maxWeakCount>
      <stageThreshold>1.0849899798631668e-01</stageThreshold>
      <weakClassifiers>
        <_>
          <internalNodes>
            0 -1 75 1.2588001845870167e-04</internalNodes>
          <leafValues>
            5.5223882198333740e-01 -6.6666668653488159e-01</leafValues></_>
        <_>
          <internalNodes>
            0 -1 24 -5.5640132632106543e-04</internalNodes>
          <leafValues>
            8.8514900207519531e-01 -4.4373980164527893e-01</leafValues></_></weakClassifiers></_>
    <!-- stage 16 -->
    <_>
      <maxWeakCount>2</maxWeakCount>
      <stageThreshold>2.2036943584680557e-02</stageThreshold>
      <weakClassifiers>
        <_>
          <internalNodes>
            0 -1 86 1.1816301412181929e-04</internalNodes>
          <leafValues>
            5.7575756311416626e-01 -6.7741936445236206e-01</leafValues></_>
        <_>
          <internalNodes>
            0 -1 28 6.4516224665567279e-04</internalNodes>
          <leafValues>
            -5.5372065305709839e-01 7.1900612115859985e-01</leafValues></_></weakClassifiers></_>
    <!-- stage 17 -->
    <_>
      <maxWeakCount>4</maxWeakCount>
      <stageThreshold>-4.1209360957145691e-01</stageThreshold>
      <weakClassifiers>
        <_>
          <internalNodes>
            0 -1 50 -2.0848296117037535e-04</internalNodes>
          <leafValues>
            8.9743590354919434e-01 -3.1034481525421143e-01</leafValues></_>
        <_>
          <internalNodes>
            0 -1 64 -2.1692221343982965e-04</internalNodes>
          <leafValues>
            8.9835894107818604e-01 -3.5289973020553589e-01</leafValues></_>
        <_>
          <internalNodes>
            0 -1 54 -2.3313349811360240e-04</internalNodes>
          <leafValues>
            8.6537778377532959e-01 -4.9037215113639832e-01</leafValues></_>
        <_>
          <internalNodes>
            0 -1 16 2.1193394786678255e-04</internalNodes>
          <leafValues>
            -4.6625763177871704e-01 8.4689629077911377e-01</leafValues></_></weakClassifiers></_>
    <!-- stage 18 -->
    <_>
      <maxWeakCount>4</maxWeakCount>
      <stageThreshold>1.2423613667488098e-01</stageThreshold>
      <weakClassifiers>
        <_>
          <internalNodes>
            0 -1 65 1.5750520396977663e-03</internalNodes>
          <leafValues>
            4.7368422150611877e-01 -9.0476191043853760e-01</leafValues></_>
        <_>
          <internalNodes>
            0 -1 58 -1.7467817524448037e-03</internalNodes>
          <leafValues>
            7.7060884237289429e-01 -4.9619820713996887e-01</leafValues></_>
        <_>
          <internalNodes>
            0 -1 49 6.9468537731154356e-06</internalNodes>
          <leafValues>
            -5.2173185348510742e-01 7.8530484437942505e-01</leafValues></_>
        <_>
          <internalNodes>
            0 -1 31 3.8935814518481493e-04</internalNodes>
          <leafValues>
            -5.9832501411437988e-01 8.6554950475692749e-01</leafValues></_></weakClassifiers></_>
    <!-- stage 19 -->
    <_>
      <maxWeakCount>2</maxWeakCount>
      <stageThreshold>8.3784788846969604e-02</stageThreshold>
      <weakClassifiers>
        <_>
          <internalNodes>
            0 -1 83 -5.9692736249417067e-04</internalNodes>
          <leafValues>
            -7.8571426868438721e-01 5.6521737575531006e-01</leafValues></_>
        <_>
          <internalNodes>
            0 -1 67 -9.4292088760994375e-05</internalNodes>
          <leafValues>
            9.6302330493927002e-01 -4.8143261671066284e-01</leafValues></_></weakClassifiers></_>
    <!-- stage 20 -->
    <_>
      <maxWeakCount>4</maxWeakCount>
      <stageThreshold>2.4932603538036346e-01</stageThreshold>
      <weakClassifiers>
        <_>
          <internalNodes>
            0 -1 21 -7.7886143117211759e-05</internalNodes>
          <leafValues>
            -1. 4.4303798675537109e-01</leafValues></_>
        <_>
          <internalNodes>
            0 -1 45 1.7322413623332977e-04</internalNodes>
          <leafValues>
            -3.9685153961181641e-01 9.2641764879226685e-01</leafValues></_>
        <_>
          <internalNodes>
            0 -1 48 1.7578604456502944e-05</internalNodes>
          <leafValues>
            5.8997184038162231e-01 -6.1434179544448853e-01</leafValues></_>
        <_>
          <internalNodes>
            0 -1 74 2.3313803831115365e-04</internalNodes>
          <leafValues>
            -3.8683226704597473e-01 1.</leafValues></_></weakClassifiers></_>
    <!-- stage 21 -->
    <_>
      <maxWeakCount>3</maxWeakCount>
      <stageThreshold>-3.5071307420730591e-01</stageThreshold>
      <weakClassifiers>
        <_>
          <internalNodes>
            0 -1 57 -3.6976292904000729e-05</internalNodes>
          <leafValues>
            8.2608693838119507e-01 -4.1176471114158630e-01</leafValues></_>
        <_>
          <internalNodes>
            0 -1 66 -1.7306496738456190e-04</internalNodes>
          <leafValues>
            8.4651666879653931e-01 -5.3664821386337280e-01</leafValues></_>
        <_>
          <internalNodes>
            0 -1 23 3.8983870763331652e-03</internalNodes>
          <leafValues>
            5.9769982099533081e-01 -8.9397728443145752e-01</leafValues></_></weakClassifiers></_>
    <!-- stage 22 -->
    <_>
      <maxWeakCount>1</maxWeakCount>
      <stageThreshold>5.0000000000000000e-01</stageThreshold>
      <weakClassifiers>
        <_>
          <internalNodes>
            0 -1 4 -5.3450232371687889e-04</internalNodes>
          <leafValues>
            -1. 5.0000000000000000e-01</leafValues></_></weakClassifiers></_>
    <!-- stage 23 -->
    <_>
      <maxWeakCount>1</maxWeakCount>
      <stageThreshold>5.0000000000000000e-01</stageThreshold>
      <weakClassifiers>
        <_>
          <internalNodes>
            0 -1 0 5.1804317627102137e-04</internalNodes>
          <leafValues>
            5.0000000000000000e-01 -1.</leafValues></_></weakClassifiers></_>
    <!-- stage 24 -->
    <_>
      <maxWeakCount>2</maxWeakCount>
      <stageThreshold>6.6901609301567078e-02</stageThreshold>
      <weakClassifiers>
        <_>
          <internalNodes>
            0 -1 1 7.5403135269880295e-05</internalNodes>
          <leafValues>
            5.4285717010498047e-01 -7.7777779102325439e-01</leafValues></_>
        <_>
          <internalNodes>
            0 -1 69 -5.1227305084466934e-04</internalNodes>
          <leafValues>
            9.2782676219940186e-01 -4.7595554590225220e-01</leafValues></_></weakClassifiers></_>
    <!-- stage 25 -->
    <_>
      <maxWeakCount>4</maxWeakCount>
      <stageThreshold>4.4370809197425842e-01</stageThreshold>
      <weakClassifiers>
        <_>
          <internalNodes>
            0 -1 56 -8.2525832112878561e-05</internalNodes>
          <leafValues>
            -7.6923078298568726e-01 5.2112674713134766e-01</leafValues></_>
        <_>
          <internalNodes>
            0 -1 40 2.6789209805428982e-03</internalNodes>
          <leafValues>
            -5.0427353382110596e-01 7.8310185670852661e-01</leafValues></_>
        <_>
          <internalNodes>
            0 -1 77 7.6753925532102585e-04</internalNodes>
          <leafValues>
            -4.0155866742134094e-01 8.7867158651351929e-01</leafValues></_>
        <_>
          <internalNodes>
            0 -1 32 4.2385403066873550e-03</internalNodes>
          <leafValues>
            -4.4883456826210022e-01 9.7684270143508911e-01</leafValues></_></weakClassifiers></_>
    <!-- stage 26 -->
    <_>
      <maxWeakCount>4</maxWeakCount>
      <stageThreshold>2.9784867167472839e-01</stageThreshold>
      <weakClassifiers>
        <_>
          <internalNodes>
            0 -1 33 -1.7297517508268356e-02</internalNodes>
          <leafValues>
            -7.7777779102325439e-01 5.4285717010498047e-01</leafValues></_>
        <_>
          <internalNodes>
            0 -1 59 2.1870899945497513e-04</internalNodes>
          <leafValues>
            6.4615339040756226e-01 -6.6515249013900757e-01</leafValues></_>
        <_>
          <internalNodes>
            0 -1 37 -3.2134703360497952e-03</internalNodes>
          <leafValues>
            9.1115301847457886e-01 -4.3017604947090149e-01</leafValues></_>
        <_>
          <internalNodes>
            0 -1 52 2.4369452148675919e-04</internalNodes>
          <leafValues>
            -4.6098580956459045e-01 9.7890496253967285e-01</leafValues></_></weakClassifiers></_>
    <!-- stage 27 -->
    <_>
      <maxWeakCount>2</maxWeakCount>
      <stageThreshold>1.1644930392503738e-01</stageThreshold>
      <weakClassifiers>
        <_>
          <internalNodes>
            0 -1 13 6.1766093131154776e-04</internalNodes>
          <leafValues>
            5.6521737575531006e-01 -7.8571426868438721e-01</leafValues></_>
        <_>
          <internalNodes>
            0 -1 47 3.6494497180683538e-05</internalNodes>
          <leafValues>
            -4.4876807928085327e-01 9.6123635768890381e-01</leafValues></_></weakClassifiers></_>
    <!-- stage 28 -->
    <_>
      <maxWeakCount>2</maxWeakCount>
      <stageThreshold>2.1501584351062775e-01</stageThreshold>
      <weakClassifiers>
        <_>
          <internalNodes>
            0 -1 41 3.5992049379274249e-04</internalNodes>
          <leafValues>
            -2.6984128355979919e-01 1.</leafValues></_>
        <_>
          <internalNodes>
            0 -1 5 -4.8982293810695410e-04</internalNodes>
          <leafValues>
            -7.8498417139053345e-01 5.3587496280670166e-01</leafValues></_></weakClassifiers></_>
    <!-- stage 29 -->
    <_>
      <maxWeakCount>3</maxWeakCount>
      <stageThreshold>-3.2281929254531860e-01</stageThreshold>
      <weakClassifiers>
        <_>
          <internalNodes>
            0 -1 80 -2.4170931283151731e-05</internalNodes>
          <leafValues>
            8.6666667461395264e-01 -4.2307692766189575e-01</leafValues></_>
        <_>
          <internalNodes>
            0 -1 22 1.1075928341597319e-05</internalNodes>
          <leafValues>
            6.6052716970443726e-01 -6.3973772525787354e-01</leafValues></_>
        <_>
          <internalNodes>
            0 -1 55 -5.6751398369669914e-04</internalNodes>
          <leafValues>
            8.7606948614120483e-01 -5.4974824190139771e-01</leafValues></_></weakClassifiers></_></stages>
  <features>
    <_>
      <rects>
        <_>
          0 2 47 3 -1.</_>
        <_>
          0 3 47 1 3.</_></rects>
      <tilted>0</tilted></_>
    <_>
      <rects>
        <_>
          0 3 10 3 -1.</_>
        <_>
          0 4 10 1 3.</_></rects>
      <tilted>0</tilted></_>
    <_>
      <rects>
        <_>
          0 5 20 3 -1.</_>
        <_>
          0 6 20 1 3.</_></rects>
      <tilted>0</tilted></_>
    <_>
      <rects>
        <_>
          0 12 8 6 -1.</_>
        <_>
          0 14 8 2 3.</_></rects>
      <tilted>0</tilted></_>
    <_>
      <rects>
        <_>
          0 37 14 2 -1.</_>
        <_>
          0 38 14 1 2.</_></rects>
      <tilted>0</tilted></_>
    <_>
      <rects>
        <_>
          0 50 9 6 -1.</_>
        <_>
          0 52 9 2 3.</_></rects>
      <tilted>0</tilted></_>
    <_>
      <rects>
        <_>
          1 4 2 3 -1.</_>
        <_>
          1 5 2 1 3.</_></rects>
      <tilted>0</tilted></_>
    <_>
      <rects>
        <_>
          1 4 9 36 -1.</_>
        <_>
          4 4 3 36 3.</_></rects>
      <tilted>0</tilted></_>
    <_>
      <rects>
        <_>
          1 7 12 15 -1.</_>
        <_>
          5 7 4 15 3.</_></rects>
      <tilted>0</tilted></_>
    <_>
      <rects>
        <_>
          1 23 15 12 -1.</_>
        <_>
          1 27 15 4 3.</_></rects>
      <tilted>0</tilted></_>
    <_>
      <rects>
        <_>
          1 24 32 9 -1.</_>
        <_>
          17 24 16 9 2.</_></rects>
      <tilted>0</tilted></_>
    <_>
      <rects>
        <_>
          1 49 6 5 -1.</_>
        <_>
          3 49 2 5 3.</_></rects>
      <tilted>0</tilted></_>
    <_>
      <rects>
        <_>
          2 5 13 6 -1.</_>
        <_>
          2 7 13 2 3.</_></rects>
      <tilted>0</tilted></_>
    <_>
      <rects>
        <_>
          2 7 7 9 -1.</_>
        <_>
          2 10 7 3 3.</_></rects>
      <tilted>0</tilted></_>
    <_>
      <rects>
        <_>
          2 9 6 19 -1.</_>
        <_>
          5 9 3 19 2.</_></rects>
      <tilted>0</tilted></_>
    <_>
      <rects>
        <_>
          3 16 6 10 -1.</_>
        <_>
          3 21 6 5 2.</_></rects>
      <tilted>0</tilted></_>
    <_>
      <rects>
        <_>
          3 31 6 8 -1.</_>
        <_>
          5 31 2 8 3.</_></rects>
      <tilted>0</tilted></_>
    <_>
      <rects>
        <_>
          3 36 4 6 -1.</_>
        <_>
          3 39 4 3 2.</_></rects>
      <tilted>0</tilted></_>
    <_>
      <rects>
        <_>
          3 40 9 14 -1.</_>
        <_>
          6 40 3 14 3.</_></rects>
      <tilted>0</tilted></_>
    <_>
      <rects>
        <_>
          4 2 28 3 -1.</_>
        <_>
          4 3 28 1 3.</_></rects>
      <tilted>0</tilted></_>
    <_>
      <rects>
        <_>
          4 18 4 24 -1.</_>
        <_>
          4 18 2 12 2.</_>
        <_>
          6 30 2 12 2.</_></rects>
      <tilted>0</tilted></_>
    <_>
      <rects>
        <_>
          5 1 12 3 -1.</_>
        <_>
          5 2 12 1 3.</_></rects>
      <tilted>0</tilted></_>
    <_>
      <rects>
        <_>
          5 31 2 3 -1.</_>
        <_>
          5 32 2 1 3.</_></rects>
      <tilted>0</tilted></_>
    <_>
      <rects>
        <_>
          5 33 28 9 -1.</_>
        <_>
          5 36 28 3 3.</_></rects>
      <tilted>0</tilted></_>
    <_>
      <rects>
        <_>
          6 15 9 20 -1.</_>
        <_>
          9 15 3 20 3.</_></rects>
      <tilted>0</tilted></_>
    <_>
      <rects>
        <_>
          6 23 36 16 -1.</_>
        <_>
          6 23 18 8 2.</_>
        <_>
          24 31 18 8 2.</_></rects>
      <tilted>0</tilted></_>
    <_>
      <rects>
        <_>
          7 21 4 12 -1.</_>
        <_>
          7 27 4 6 2.</_></rects>
      <tilted>0</tilted></_>
    <_>
      <rects>
        <_>
          8 1 43 36 -1.</_>
        <_>
          8 19 43 18 2.</_></rects>
      <tilted>0</tilted></_>
    <_>
      <rects>
        <_>
          8 4 2 33 -1.</_>
        <_>
          8 15 2 11 3.</_></rects>
      <tilted>0</tilted></_>
    <_>
      <rects>
        <_>
          9 14 6 4 -1.</_>
        <_>
          9 16 6 2 2.</_></rects>
      <tilted>0</tilted></_>
    <_>
      <rects>
        <_>
          10 0 6 28 -1.</_>
        <_>
          12 0 2 28 3.</_></rects>
      <tilted>0</tilted></_>
    <_>
      <rects>
        <_>
          10 3 6 11 -1.</_>
        <_>
          12 3 2 11 3.</_></rects>
      <tilted>0</tilted></_>
    <_>
      <rects>
        <_>
          10 4 18 45 -1.</_>
        <_>
          16 4 6 45 3.</_></rects>
      <tilted>0</tilted></_>
    <_>
      <rects>
        <_>
          12 0 48 26 -1.</_>
        <_>
          12 0 24 13 2.</_>
        <_>
          36 13 24 13 2.</_></rects>
      <tilted>0</tilted></_>
    <_>
      <rects>
        <_>
          12 13 12 31 -1.</_>
        <_>
          18 13 6 31 2.</_></rects>
      <tilted>0</tilted></_>
    <_>
      <rects>
        <_>
          14 2 21 2 -1.</_>
        <_>
          14 3 21 1 2.</_></rects>
      <tilted>0</tilted></_>
    <_>
      <rects>
        <_>
          15 5 8 18 -1.</_>
        <_>
          19 5 4 18 2.</_></rects>
      <tilted>0</tilted></_>
    <_>
      <rects>
        <_>
          16 35 40 8 -1.</_>
        <_>
          16 39 40 4 2.</_></rects>
      <tilted>0</tilted></_>
    <_>
      <rects>
        <_>
          16 51 6 6 -1.</_>
        <_>
          19 51 3 6 2.</_></rects>
      <tilted>0</tilted></_>
    <_>
      <rects>
        <_>
          17 1 3 3 -1.</_>
        <_>
          18 1 1 3 3.</_></rects>
      <tilted>0</tilted></_>
    <_>
      <rects>
        <_>
          18 36 10 18 -1.</_>
        <_>
          18 45 10 9 2.</_></rects>
      <tilted>0</tilted></_>
    <_>
      <rects>
        <_>
          20 10 9 4 -1.</_>
        <_>
          23 10 3 4 3.</_></rects>
      <tilted>0</tilted></_>
    <_>
      <rects>
        <_>
          20 20 40 13 -1.</_>
        <_>
          40 20 20 13 2.</_></rects>
      <tilted>0</tilted></_>
    <_>
      <rects>
        <_>
          20 49 6 8 -1.</_>
        <_>
          23 49 3 8 2.</_></rects>
      <tilted>0</tilted></_>
    <_>
      <rects>
        <_>
          21 0 37 34 -1.</_>
        <_>
          21 17 37 17 2.</_></rects>
      <tilted>0</tilted></_>
    <_>
      <rects>
        <_>
          24 1 2 26 -1.</_>
        <_>
          24 1 1 13 2.</_>
        <_>
          25 14 1 13 2.</_></rects>
      <tilted>0</tilted></_>
    <_>
      <rects>
        <_>
          25 21 10 24 -1.</_>
        <_>
          25 29 10 8 3.</_></rects>
      <tilted>0</tilted></_>
    <_>
      <rects>
        <_>
          26 56 2 2 -1.</_>
        <_>
          26 57 2 1 2.</_></rects>
      <tilted>0</tilted></_>
    <_>
      <rects>
        <_>
          27 30 1 3 -1.</_>
        <_>
          27 31 1 1 3.</_></rects>
      <tilted>0</tilted></_>
    <_>
      <rects>
        <_>
          27 57 1 2 -1.</_>
        <_>
          27 58 1 1 2.</_></rects>
      <tilted>0</tilted></_>
    <_>
      <rects>
        <_>
          28 39 2 9 -1.</_>
        <_>
          28 42 2 3 3.</_></rects>
      <tilted>0</tilted></_>
    <_>
      <rects>
        <_>
          30 21 30 26 -1.</_>
        <_>
          45 21 15 26 2.</_></rects>
      <tilted>0</tilted></_>
    <_>
      <rects>
        <_>
          31 10 6 3 -1.</_>
        <_>
          33 10 2 3 3.</_></rects>
      <tilted>0</tilted></_>
    <_>
      <rects>
        <_>
          31 37 26 2 -1.</_>
        <_>
          31 38 26 1 2.</_></rects>
      <tilted>0</tilted></_>
    <_>
      <rects>
        <_>
          33 11 3 38 -1.</_>
        <_>
          34 11 1 38 3.</_></rects>
      <tilted>0</tilted></_>
    <_>
      <rects>
        <_>
          33 22 9 12 -1.</_>
        <_>
          33 26 9 4 3.</_></rects>
      <tilted>0</tilted></_>
    <_>
      <rects>
        <_>
          34 6 15 3 -1.</_>
        <_>
          34 7 15 1 3.</_></rects>
      <tilted>0</tilted></_>
    <_>
      <rects>
        <_>
          34 27 4 32 -1.</_>
        <_>
          34 27 2 16 2.</_>
        <_>
          36 43 2 16 2.</_></rects>
      <tilted>0</tilted></_>
    <_>
      <rects>
        <_>
          35 38 12 15 -1.</_>
        <_>
          35 43 12 5 3.</_></rects>
      <tilted>0</tilted></_>
    <_>
      <rects>
        <_>
          36 29 9 6 -1.</_>
        <_>
          36 31 9 2 3.</_></rects>
      <tilted>0</tilted></_>
    <_>
      <rects>
        <_>
          37 35 12 16 -1.</_>
        <_>
          37 35 6 8 2.</_>
        <_>
          43 43 6 8 2.</_></rects>
      <tilted>0</tilted></_>
    <_>
      <rects>
        <_>
          38 8 2 32 -1.</_>
        <_>
          38 8 1 16 2.</_>
        <_>
          39 24 1 16 2.</_></rects>
      <tilted>0</tilted></_>
    <_>
      <rects>
        <_>
          38 38 14 8 -1.</_>
        <_>
          38 38 7 4 2.</_>
        <_>
          45 42 7 4 2.</_></rects>
      <tilted>0</tilted></_>
    <_>
      <rects>
        <_>
          38 50 4 10 -1.</_>
        <_>
          38 55 4 5 2.</_></rects>
      <tilted>0</tilted></_>
    <_>
      <rects>
        <_>
          39 3 6 3 -1.</_>
        <_>
          41 3 2 3 3.</_></rects>
      <tilted>0</tilted></_>
    <_>
      <rects>
        <_>
          39 22 11 6 -1.</_>
        <_>
          39 24 11 2 3.</_></rects>
      <tilted>0</tilted></_>
    <_>
      <rects>
        <_>
          40 18 2 28 -1.</_>
        <_>
          40 18 1 14 2.</_>
        <_>
          41 32 1 14 2.</_></rects>
      <tilted>0</tilted></_>
    <_>
      <rects>
        <_>
          41 2 3 10 -1.</_>
        <_>
          42 2 1 10 3.</_></rects>
      <tilted>0</tilted></_>
    <_>
      <rects>
        <_>
          41 11 2 16 -1.</_>
        <_>
          41 11 1 8 2.</_>
        <_>
          42 19 1 8 2.</_></rects>
      <tilted>0</tilted></_>
    <_>
      <rects>
        <_>
          42 47 9 8 -1.</_>
        <_>
          45 47 3 8 3.</_></rects>
      <tilted>0</tilted></_>
    <_>
      <rects>
        <_>
          43 11 3 1 -1.</_>
        <_>
          44 11 1 1 3.</_></rects>
      <tilted>0</tilted></_>
    <_>
      <rects>
        <_>
          45 36 3 2 -1.</_>
        <_>
          45 37 3 1 2.</_></rects>
      <tilted>0</tilted></_>
    <_>
      <rects>
        <_>
          46 29 12 3 -1.</_>
        <_>
          46 30 12 1 3.</_></rects>
      <tilted>0</tilted></_>
    <_>
      <rects>
        <_>
          47 13 12 9 -1.</_>
        <_>
          51 13 4 9 3.</_></rects>
      <tilted>0</tilted></_>
    <_>
      <rects>
        <_>
          48 25 2 12 -1.</_>
        <_>
          48 25 1 6 2.</_>
        <_>
          49 31 1 6 2.</_></rects>
      <tilted>0</tilted></_>
    <_>
      <rects>
        <_>
          49 4 4 6 -1.</_>
        <_>
          49 6 4 2 3.</_></rects>
      <tilted>0</tilted></_>
    <_>
      <rects>
        <_>
          50 14 8 4 -1.</_>
        <_>
          50 16 8 2 2.</_></rects>
      <tilted>0</tilted></_>
    <_>
      <rects>
        <_>
          52 1 4 32 -1.</_>
        <_>
          52 1 2 16 2.</_>
        <_>
          54 17 2 16 2.</_></rects>
      <tilted>0</tilted></_>
    <_>
      <rects>
        <_>
          52 6 6 18 -1.</_>
        <_>
          52 6 3 9 2.</_>
        <_>
          55 15 3 9 2.</_></rects>
      <tilted>0</tilted></_>
    <_>
      <rects>
        <_>
          52 28 7 6 -1.</_>
        <_>
          52 31 7 3 2.</_></rects>
      <tilted>0</tilted></_>
    <_>
      <rects>
        <_>
          52 43 2 9 -1.</_>
        <_>
          52 46 2 3 3.</_></rects>
      <tilted>0</tilted></_>
    <_>
      <rects>
        <_>
          53 2 4 3 -1.</_>
        <_>
          53 3 4 1 3.</_></rects>
      <tilted>0</tilted></_>
    <_>
      <rects>
        <_>
          54 10 2 18 -1.</_>
        <_>
          54 10 1 9 2.</_>
        <_>
          55 19 1 9 2.</_></rects>
      <tilted>0</tilted></_>
    <_>
      <rects>
        <_>
          55 27 5 9 -1.</_>
        <_>
          55 30 5 3 3.</_></rects>
      <tilted>0</tilted></_>
    <_>
      <rects>
        <_>
          55 45 2 2 -1.</_>
        <_>
          56 45 1 2 2.</_></rects>
      <tilted>0</tilted></_>
    <_>
      <rects>
        <_>
          56 45 4 14 -1.</_>
        <_>
          56 45 2 7 2.</_>
        <_>
          58 52 2 7 2.</_></rects>
      <tilted>0</tilted></_>
    <_>
      <rects>
        <_>
          59 12 1 16 -1.</_>
        <_>
          59 20 1 8 2.</_></rects>
      <tilted>0</tilted></_></features></cascade>
</opencv_storage>
