<?xml version="1.0"?>
<opencv_storage>
<cascade>
  <stageType>BOOST</stageType>
  <featureType>HAAR</featureType>
  <height>24</height>
  <width>24</width>
  <stageParams>
    <boostType>GAB</boostType>
    <minHitRate>9.9500000476837158e-01</minHitRate>
    <maxFalseAlarm>5.0000000000000000e-01</maxFalseAlarm>
    <weightTrimRate>9.4999999999999996e-01</weightTrimRate>
    <maxDepth>1</maxDepth>
    <maxWeakCount>100</maxWeakCount></stageParams>
  <featureParams>
    <maxCatCount>0</maxCatCount>
    <featSize>1</featSize>
    <mode>BASIC</mode></featureParams>
  <stageNum>15</stageNum>
  <stages>
    <!-- stage 0 -->
    <_>
      <maxWeakCount>3</maxWeakCount>
      <stageThreshold>-6.9676107168197632e-01</stageThreshold>
      <weakClassifiers>
        <_>
          <internalNodes>
            0 -1 4 4.3296208605170250e-03</internalNodes>
          <leafValues>
            5.4929578304290771e-01 -8.4615385532379150e-01</leafValues></_>
        <_>
          <internalNodes>
            0 -1 41 4.5818225480616093e-03</internalNodes>
          <leafValues>
            -6.5533387660980225e-01 7.2325915098190308e-01</leafValues></_>
        <_>
          <internalNodes>
            0 -1 9 2.7126732675242238e-05</internalNodes>
          <leafValues>
            -5.9072291851043701e-01 6.7396682500839233e-01</leafValues></_></weakClassifiers></_>
    <!-- stage 1 -->
    <_>
      <maxWeakCount>2</maxWeakCount>
      <stageThreshold>2.8060564398765564e-01</stageThreshold>
      <weakClassifiers>
        <_>
          <internalNodes>
            0 -1 17 -9.4806820154190063e-02</internalNodes>
          <leafValues>
            7.1428573131561279e-01 -5.6097561120986938e-01</leafValues></_>
        <_>
          <internalNodes>
            0 -1 14 2.2215067874640226e-03</internalNodes>
          <leafValues>
            -4.3368008732795715e-01 9.1605931520462036e-01</leafValues></_></weakClassifiers></_>
    <!-- stage 2 -->
    <_>
      <maxWeakCount>2</maxWeakCount>
      <stageThreshold>3.3192831277847290e-01</stageThreshold>
      <weakClassifiers>
        <_>
          <internalNodes>
            0 -1 3 -1.0082417726516724e-01</internalNodes>
          <leafValues>
            7.7358490228652954e-01 -5.4545456171035767e-01</leafValues></_>
        <_>
          <internalNodes>
            0 -1 23 -5.8571225963532925e-04</internalNodes>
          <leafValues>
            8.7875413894653320e-01 -4.4165658950805664e-01</leafValues></_></weakClassifiers></_>
    <!-- stage 3 -->
    <_>
      <maxWeakCount>4</maxWeakCount>
      <stageThreshold>-5.5256974697113037e-01</stageThreshold>
      <weakClassifiers>
        <_>
          <internalNodes>
            0 -1 38 -2.0280119031667709e-02</internalNodes>
          <leafValues>
            8.4615385532379150e-01 -2.7586206793785095e-01</leafValues></_>
        <_>
          <internalNodes>
            0 -1 43 4.2870285687968135e-04</internalNodes>
          <leafValues>
            -2.6427078247070313e-01 1.</leafValues></_>
        <_>
          <internalNodes>
            0 -1 44 1.6048643738031387e-04</internalNodes>
          <leafValues>
            -5.1735275983810425e-01 6.9397491216659546e-01</leafValues></_>
        <_>
          <internalNodes>
            0 -1 45 -1.6147798160091043e-03</internalNodes>
          <leafValues>
            -8.3147078752517700e-01 5.0491589307785034e-01</leafValues></_></weakClassifiers></_>
    <!-- stage 4 -->
    <_>
      <maxWeakCount>4</maxWeakCount>
      <stageThreshold>-6.7501997947692871e-01</stageThreshold>
      <weakClassifiers>
        <_>
          <internalNodes>
            0 -1 8 2.3620463252882473e-05</internalNodes>
          <leafValues>
            -5.0000000000000000e-01 6.4912283420562744e-01</leafValues></_>
        <_>
          <internalNodes>
            0 -1 11 1.4551864296663553e-05</internalNodes>
          <leafValues>
            -5.1905101537704468e-01 6.2124842405319214e-01</leafValues></_>
        <_>
          <internalNodes>
            0 -1 24 7.5331130065023899e-03</internalNodes>
          <leafValues>
            -4.0430954098701477e-01 8.3655285835266113e-01</leafValues></_>
        <_>
          <internalNodes>
            0 -1 35 -1.7509689554572105e-02</internalNodes>
          <leafValues>
            8.3376181125640869e-01 -4.9252185225486755e-01</leafValues></_></weakClassifiers></_>
    <!-- stage 5 -->
    <_>
      <maxWeakCount>4</maxWeakCount>
      <stageThreshold>2.5590828061103821e-01</stageThreshold>
      <weakClassifiers>
        <_>
          <internalNodes>
            0 -1 46 -1.1615175753831863e-02</internalNodes>
          <leafValues>
            5.3623187541961670e-01 -7.1428573131561279e-01</leafValues></_>
        <_>
          <internalNodes>
            0 -1 52 4.4127029832452536e-04</internalNodes>
          <leafValues>
            -5.2724701166152954e-01 7.4427455663681030e-01</leafValues></_>
        <_>
          <internalNodes>
            0 -1 15 -6.9538624957203865e-03</internalNodes>
          <leafValues>
            7.3506969213485718e-01 -6.0517382621765137e-01</leafValues></_>
        <_>
          <internalNodes>
            0 -1 31 -6.4980040770024061e-04</internalNodes>
          <leafValues>
            9.2250955104827881e-01 -4.1942438483238220e-01</leafValues></_></weakClassifiers></_>
    <!-- stage 6 -->
    <_>
      <maxWeakCount>3</maxWeakCount>
      <stageThreshold>-4.0001064538955688e-01</stageThreshold>
      <weakClassifiers>
        <_>
          <internalNodes>
            0 -1 30 -1.5741419047117233e-02</internalNodes>
          <leafValues>
            7.5000000000000000e-01 -3.8775509595870972e-01</leafValues></_>
        <_>
          <internalNodes>
            0 -1 40 -8.4180396515876055e-04</internalNodes>
          <leafValues>
            6.9324743747711182e-01 -4.3394309282302856e-01</leafValues></_>
        <_>
          <internalNodes>
            0 -1 0 4.9979862524196506e-04</internalNodes>
          <leafValues>
            4.2168754339218140e-01 -8.5005259513854980e-01</leafValues></_></weakClassifiers></_>
    <!-- stage 7 -->
    <_>
      <maxWeakCount>4</maxWeakCount>
      <stageThreshold>-1.2444486841559410e-02</stageThreshold>
      <weakClassifiers>
        <_>
          <internalNodes>
            0 -1 2 7.9408735036849976e-03</internalNodes>
          <leafValues>
            4.4303798675537109e-01 -1.</leafValues></_>
        <_>
          <internalNodes>
            0 -1 42 -1.5939107164740562e-02</internalNodes>
          <leafValues>
            9.2641764879226685e-01 -3.9685153961181641e-01</leafValues></_>
        <_>
          <internalNodes>
            0 -1 48 -4.9299001693725586e-04</internalNodes>
          <leafValues>
            8.7222576141357422e-01 -4.3274983763694763e-01</leafValues></_>
        <_>
          <internalNodes>
            0 -1 54 -9.4352802261710167e-04</internalNodes>
          <leafValues>
            -9.3085670471191406e-01 4.1218659281730652e-01</leafValues></_></weakClassifiers></_>
    <!-- stage 8 -->
    <_>
      <maxWeakCount>5</maxWeakCount>
      <stageThreshold>7.0919714868068695e-02</stageThreshold>
      <weakClassifiers>
        <_>
          <internalNodes>
            0 -1 1 3.2167111057788134e-03</internalNodes>
          <leafValues>
            -2.0634920895099640e-01 8.8235294818878174e-01</leafValues></_>
        <_>
          <internalNodes>
            0 -1 37 -4.0272437036037445e-03</internalNodes>
          <leafValues>
            7.8849101066589355e-01 -3.2768172025680542e-01</leafValues></_>
        <_>
          <internalNodes>
            0 -1 28 -2.1631017327308655e-02</internalNodes>
          <leafValues>
            7.3194926977157593e-01 -4.7600579261779785e-01</leafValues></_>
        <_>
          <internalNodes>
            0 -1 53 -3.2513769110664725e-04</internalNodes>
          <leafValues>
            -9.5303672552108765e-01 4.1963481903076172e-01</leafValues></_>
        <_>
          <internalNodes>
            0 -1 26 1.0536529589444399e-03</internalNodes>
          <leafValues>
            -4.2738056182861328e-01 8.4006083011627197e-01</leafValues></_></weakClassifiers></_>
    <!-- stage 9 -->
    <_>
      <maxWeakCount>5</maxWeakCount>
      <stageThreshold>-3.1973484158515930e-01</stageThreshold>
      <weakClassifiers>
        <_>
          <internalNodes>
            0 -1 51 9.7988992929458618e-03</internalNodes>
          <leafValues>
            -2.5423729419708252e-01 8.4210526943206787e-01</leafValues></_>
        <_>
          <internalNodes>
            0 -1 16 -1.9688829779624939e-02</internalNodes>
          <leafValues>
            -1. 3.6614805459976196e-01</leafValues></_>
        <_>
          <internalNodes>
            0 -1 22 1.9314023666083813e-03</internalNodes>
          <leafValues>
            -3.4368851780891418e-01 9.1843271255493164e-01</leafValues></_>
        <_>
          <internalNodes>
            0 -1 49 9.0752524556592107e-05</internalNodes>
          <leafValues>
            -6.4953118562698364e-01 5.2319711446762085e-01</leafValues></_>
        <_>
          <internalNodes>
            0 -1 12 1.2208546977490187e-03</internalNodes>
          <leafValues>
            -6.1115419864654541e-01 6.6292375326156616e-01</leafValues></_></weakClassifiers></_>
    <!-- stage 10 -->
    <_>
      <maxWeakCount>4</maxWeakCount>
      <stageThreshold>-5.2060294151306152e-01</stageThreshold>
      <weakClassifiers>
        <_>
          <internalNodes>
            0 -1 39 7.2717620059847832e-04</internalNodes>
          <leafValues>
            -2.1875000000000000e-01 9.3939393758773804e-01</leafValues></_>
        <_>
          <internalNodes>
            0 -1 33 1.4335213229060173e-02</internalNodes>
          <leafValues>
            -3.2873320579528809e-01 7.9485338926315308e-01</leafValues></_>
        <_>
          <internalNodes>
            0 -1 7 -4.5043457066640258e-04</internalNodes>
          <leafValues>
            -7.2420942783355713e-01 5.3682744503021240e-01</leafValues></_>
        <_>
          <internalNodes>
            0 -1 29 1.0789723601192236e-03</internalNodes>
          <leafValues>
            -5.0994718074798584e-01 8.6173325777053833e-01</leafValues></_></weakClassifiers></_>
    <!-- stage 11 -->
    <_>
      <maxWeakCount>4</maxWeakCount>
      <stageThreshold>-2.9290571808815002e-01</stageThreshold>
      <weakClassifiers>
        <_>
          <internalNodes>
            0 -1 56 9.4565213657915592e-04</internalNodes>
          <leafValues>
            -1.8181818723678589e-01 9.3548387289047241e-01</leafValues></_>
        <_>
          <internalNodes>
            0 -1 34 -3.3594132401049137e-04</internalNodes>
          <leafValues>
            6.8689298629760742e-01 -3.9380422234535217e-01</leafValues></_>
        <_>
          <internalNodes>
            0 -1 19 1.6093663871288300e-03</internalNodes>
          <leafValues>
            -3.8996973633766174e-01 7.7478957176208496e-01</leafValues></_>
        <_>
          <internalNodes>
            0 -1 47 -1.7521729459986091e-03</internalNodes>
          <leafValues>
            8.2748085260391235e-01 -4.0801078081130981e-01</leafValues></_></weakClassifiers></_>
    <!-- stage 12 -->
    <_>
      <maxWeakCount>4</maxWeakCount>
      <stageThreshold>-5.2798205614089966e-01</stageThreshold>
      <weakClassifiers>
        <_>
          <internalNodes>
            0 -1 20 -8.4265886107459664e-04</internalNodes>
          <leafValues>
            6.2264150381088257e-01 -3.6363637447357178e-01</leafValues></_>
        <_>
          <internalNodes>
            0 -1 50 1.6242290439549834e-04</internalNodes>
          <leafValues>
            -4.8674583435058594e-01 5.9107249975204468e-01</leafValues></_>
        <_>
          <internalNodes>
            0 -1 25 -3.7145975511521101e-04</internalNodes>
          <leafValues>
            8.0865520238876343e-01 -4.3463870882987976e-01</leafValues></_>
        <_>
          <internalNodes>
            0 -1 10 1.2067647185176611e-03</internalNodes>
          <leafValues>
            -3.2077947258949280e-01 8.6360740661621094e-01</leafValues></_></weakClassifiers></_>
    <!-- stage 13 -->
    <_>
      <maxWeakCount>4</maxWeakCount>
      <stageThreshold>-1.5163101255893707e-01</stageThreshold>
      <weakClassifiers>
        <_>
          <internalNodes>
            0 -1 36 2.1062321029603481e-03</internalNodes>
          <leafValues>
            -1.8750000000000000e-01 8.7878787517547607e-01</leafValues></_>
        <_>
          <internalNodes>
            0 -1 18 1.9923269748687744e-02</internalNodes>
          <leafValues>
            -3.2786464691162109e-01 8.3194190263748169e-01</leafValues></_>
        <_>
          <internalNodes>
            0 -1 32 2.4853849317878485e-03</internalNodes>
          <leafValues>
            -3.5380387306213379e-01 1.</leafValues></_>
        <_>
          <internalNodes>
            0 -1 13 1.0296369437128305e-03</internalNodes>
          <leafValues>
            -3.4875035285949707e-01 8.0346405506134033e-01</leafValues></_></weakClassifiers></_>
    <!-- stage 14 -->
    <_>
      <maxWeakCount>5</maxWeakCount>
      <stageThreshold>-3.3537191152572632e-01</stageThreshold>
      <weakClassifiers>
        <_>
          <internalNodes>
            0 -1 5 3.5286400467157364e-02</internalNodes>
          <leafValues>
            4.2500001192092896e-01 -1.</leafValues></_>
        <_>
          <internalNodes>
            0 -1 6 3.8763147313147783e-04</internalNodes>
          <leafValues>
            -4.8481306433677673e-01 6.3026362657546997e-01</leafValues></_>
        <_>
          <internalNodes>
            0 -1 27 -3.9722612127661705e-03</internalNodes>
          <leafValues>
            5.6075161695480347e-01 -5.8361291885375977e-01</leafValues></_>
        <_>
          <internalNodes>
            0 -1 21 1.8195171141996980e-03</internalNodes>
          <leafValues>
            -4.1234260797500610e-01 7.9021668434143066e-01</leafValues></_>
        <_>
          <internalNodes>
            0 -1 55 2.7421242557466030e-03</internalNodes>
          <leafValues>
            -3.9467999339103699e-01 8.0500251054763794e-01</leafValues></_></weakClassifiers></_></stages>
  <features>
    <_>
      <rects>
        <_>
          0 2 1 4 -1.</_>
        <_>
          0 4 1 2 2.</_></rects>
      <tilted>0</tilted></_>
    <_>
      <rects>
        <_>
          0 6 3 16 -1.</_>
        <_>
          1 6 1 16 3.</_></rects>
      <tilted>0</tilted></_>
    <_>
      <rects>
        <_>
          0 6 3 9 -1.</_>
        <_>
          0 9 3 3 3.</_></rects>
      <tilted>0</tilted></_>
    <_>
      <rects>
        <_>
          0 6 24 10 -1.</_>
        <_>
          8 6 8 10 3.</_></rects>
      <tilted>0</tilted></_>
    <_>
      <rects>
        <_>
          0 11 7 4 -1.</_>
        <_>
          0 13 7 2 2.</_></rects>
      <tilted>0</tilted></_>
    <_>
      <rects>
        <_>
          0 11 14 6 -1.</_>
        <_>
          7 11 7 6 2.</_></rects>
      <tilted>0</tilted></_>
    <_>
      <rects>
        <_>
          0 19 3 2 -1.</_>
        <_>
          1 19 1 2 3.</_></rects>
      <tilted>0</tilted></_>
    <_>
      <rects>
        <_>
          1 0 2 9 -1.</_>
        <_>
          1 3 2 3 3.</_></rects>
      <tilted>0</tilted></_>
    <_>
      <rects>
        <_>
          1 4 3 4 -1.</_>
        <_>
          2 4 1 4 3.</_></rects>
      <tilted>0</tilted></_>
    <_>
      <rects>
        <_>
          1 6 3 2 -1.</_>
        <_>
          2 6 1 2 3.</_></rects>
      <tilted>0</tilted></_>
    <_>
      <rects>
        <_>
          1 13 4 4 -1.</_>
        <_>
          1 13 2 2 2.</_>
        <_>
          3 15 2 2 2.</_></rects>
      <tilted>0</tilted></_>
    <_>
      <rects>
        <_>
          1 22 2 2 -1.</_>
        <_>
          1 22 1 1 2.</_>
        <_>
          2 23 1 1 2.</_></rects>
      <tilted>0</tilted></_>
    <_>
      <rects>
        <_>
          2 2 1 15 -1.</_>
        <_>
          2 7 1 5 3.</_></rects>
      <tilted>0</tilted></_>
    <_>
      <rects>
        <_>
          2 5 3 6 -1.</_>
        <_>
          3 5 1 6 3.</_></rects>
      <tilted>0</tilted></_>
    <_>
      <rects>
        <_>
          2 5 6 2 -1.</_>
        <_>
          4 5 2 2 3.</_></rects>
      <tilted>0</tilted></_>
    <_>
      <rects>
        <_>
          2 8 3 10 -1.</_>
        <_>
          2 13 3 5 2.</_></rects>
      <tilted>0</tilted></_>
    <_>
      <rects>
        <_>
          2 11 22 4 -1.</_>
        <_>
          2 11 11 2 2.</_>
        <_>
          13 13 11 2 2.</_></rects>
      <tilted>0</tilted></_>
    <_>
      <rects>
        <_>
          3 0 16 14 -1.</_>
        <_>
          3 7 16 7 2.</_></rects>
      <tilted>0</tilted></_>
    <_>
      <rects>
        <_>
          4 14 12 9 -1.</_>
        <_>
          10 14 6 9 2.</_></rects>
      <tilted>0</tilted></_>
    <_>
      <rects>
        <_>
          4 22 9 2 -1.</_>
        <_>
          4 23 9 1 2.</_></rects>
      <tilted>0</tilted></_>
    <_>
      <rects>
        <_>
          5 11 18 6 -1.</_>
        <_>
          5 11 9 3 2.</_>
        <_>
          14 14 9 3 2.</_></rects>
      <tilted>0</tilted></_>
    <_>
      <rects>
        <_>
          5 18 6 6 -1.</_>
        <_>
          5 20 6 2 3.</_></rects>
      <tilted>0</tilted></_>
    <_>
      <rects>
        <_>
          6 2 4 2 -1.</_>
        <_>
          8 2 2 2 2.</_></rects>
      <tilted>0</tilted></_>
    <_>
      <rects>
        <_>
          6 3 3 5 -1.</_>
        <_>
          7 3 1 5 3.</_></rects>
      <tilted>0</tilted></_>
    <_>
      <rects>
        <_>
          6 5 10 6 -1.</_>
        <_>
          6 7 10 2 3.</_></rects>
      <tilted>0</tilted></_>
    <_>
      <rects>
        <_>
          7 6 3 1 -1.</_>
        <_>
          8 6 1 1 3.</_></rects>
      <tilted>0</tilted></_>
    <_>
      <rects>
        <_>
          8 19 5 3 -1.</_>
        <_>
          8 20 5 1 3.</_></rects>
      <tilted>0</tilted></_>
    <_>
      <rects>
        <_>
          9 6 12 7 -1.</_>
        <_>
          13 6 4 7 3.</_></rects>
      <tilted>0</tilted></_>
    <_>
      <rects>
        <_>
          9 9 10 12 -1.</_>
        <_>
          9 9 5 6 2.</_>
        <_>
          14 15 5 6 2.</_></rects>
      <tilted>0</tilted></_>
    <_>
      <rects>
        <_>
          9 13 3 8 -1.</_>
        <_>
          10 13 1 8 3.</_></rects>
      <tilted>0</tilted></_>
    <_>
      <rects>
        <_>
          10 0 1 24 -1.</_>
        <_>
          10 8 1 8 3.</_></rects>
      <tilted>0</tilted></_>
    <_>
      <rects>
        <_>
          10 9 2 4 -1.</_>
        <_>
          10 9 1 2 2.</_>
        <_>
          11 11 1 2 2.</_></rects>
      <tilted>0</tilted></_>
    <_>
      <rects>
        <_>
          10 22 4 2 -1.</_>
        <_>
          10 23 4 1 2.</_></rects>
      <tilted>0</tilted></_>
    <_>
      <rects>
        <_>
          11 14 3 10 -1.</_>
        <_>
          11 19 3 5 2.</_></rects>
      <tilted>0</tilted></_>
    <_>
      <rects>
        <_>
          11 16 2 3 -1.</_>
        <_>
          11 17 2 1 3.</_></rects>
      <tilted>0</tilted></_>
    <_>
      <rects>
        <_>
          12 0 2 12 -1.</_>
        <_>
          12 6 2 6 2.</_></rects>
      <tilted>0</tilted></_>
    <_>
      <rects>
        <_>
          12 1 3 8 -1.</_>
        <_>
          13 1 1 8 3.</_></rects>
      <tilted>0</tilted></_>
    <_>
      <rects>
        <_>
          12 2 9 2 -1.</_>
        <_>
          15 2 3 2 3.</_></rects>
      <tilted>0</tilted></_>
    <_>
      <rects>
        <_>
          12 16 12 8 -1.</_>
        <_>
          16 16 4 8 3.</_></rects>
      <tilted>0</tilted></_>
    <_>
      <rects>
        <_>
          14 20 1 4 -1.</_>
        <_>
          14 22 1 2 2.</_></rects>
      <tilted>0</tilted></_>
    <_>
      <rects>
        <_>
          15 8 3 9 -1.</_>
        <_>
          16 8 1 9 3.</_></rects>
      <tilted>0</tilted></_>
    <_>
      <rects>
        <_>
          15 8 4 9 -1.</_>
        <_>
          17 8 2 9 2.</_></rects>
      <tilted>0</tilted></_>
    <_>
      <rects>
        <_>
          15 16 9 4 -1.</_>
        <_>
          18 16 3 4 3.</_></rects>
      <tilted>0</tilted></_>
    <_>
      <rects>
        <_>
          15 21 1 2 -1.</_>
        <_>
          15 22 1 1 2.</_></rects>
      <tilted>0</tilted></_>
    <_>
      <rects>
        <_>
          16 0 4 2 -1.</_>
        <_>
          18 0 2 2 2.</_></rects>
      <tilted>0</tilted></_>
    <_>
      <rects>
        <_>
          17 1 7 2 -1.</_>
        <_>
          17 2 7 1 2.</_></rects>
      <tilted>0</tilted></_>
    <_>
      <rects>
        <_>
          17 2 7 20 -1.</_>
        <_>
          17 12 7 10 2.</_></rects>
      <tilted>0</tilted></_>
    <_>
      <rects>
        <_>
          17 14 2 10 -1.</_>
        <_>
          17 14 1 5 2.</_>
        <_>
          18 19 1 5 2.</_></rects>
      <tilted>0</tilted></_>
    <_>
      <rects>
        <_>
          18 17 3 2 -1.</_>
        <_>
          18 18 3 1 2.</_></rects>
      <tilted>0</tilted></_>
    <_>
      <rects>
        <_>
          18 18 4 2 -1.</_>
        <_>
          20 18 2 2 2.</_></rects>
      <tilted>0</tilted></_>
    <_>
      <rects>
        <_>
          19 0 3 5 -1.</_>
        <_>
          20 0 1 5 3.</_></rects>
      <tilted>0</tilted></_>
    <_>
      <rects>
        <_>
          19 13 4 8 -1.</_>
        <_>
          21 13 2 8 2.</_></rects>
      <tilted>0</tilted></_>
    <_>
      <rects>
        <_>
          20 1 3 5 -1.</_>
        <_>
          21 1 1 5 3.</_></rects>
      <tilted>0</tilted></_>
    <_>
      <rects>
        <_>
          20 4 1 3 -1.</_>
        <_>
          20 5 1 1 3.</_></rects>
      <tilted>0</tilted></_>
    <_>
      <rects>
        <_>
          20 5 2 3 -1.</_>
        <_>
          20 6 2 1 3.</_></rects>
      <tilted>0</tilted></_>
    <_>
      <rects>
        <_>
          21 1 2 16 -1.</_>
        <_>
          21 1 1 8 2.</_>
        <_>
          22 9 1 8 2.</_></rects>
      <tilted>0</tilted></_>
    <_>
      <rects>
        <_>
          21 16 3 2 -1.</_>
        <_>
          22 16 1 2 3.</_></rects>
      <tilted>0</tilted></_></features></cascade>
</opencv_storage>
