<?xml version="1.0"?>
<opencv_storage>
<cascade>
  <stageType>BOOST</stageType>
  <featureType>HAAR</featureType>
  <height>40</height>
  <width>40</width>
  <stageParams>
    <boostType>GAB</boostType>
    <minHitRate>9.9500000476837158e-01</minHitRate>
    <maxFalseAlarm>5.0000000000000000e-01</maxFalseAlarm>
    <weightTrimRate>9.4999999999999996e-01</weightTrimRate>
    <maxDepth>1</maxDepth>
    <maxWeakCount>100</maxWeakCount></stageParams>
  <featureParams>
    <maxCatCount>0</maxCatCount>
    <featSize>1</featSize>
    <mode>BASIC</mode></featureParams>
  <stageNum>17</stageNum>
  <stages>
    <!-- stage 0 -->
    <_>
      <maxWeakCount>3</maxWeakCount>
      <stageThreshold>-7.9809266328811646e-01</stageThreshold>
      <weakClassifiers>
        <_>
          <internalNodes>
            0 -1 35 -8.9801162481307983e-02</internalNodes>
          <leafValues>
            8.0152672529220581e-01 -7.4025976657867432e-01</leafValues></_>
        <_>
          <internalNodes>
            0 -1 21 -8.2413226366043091e-02</internalNodes>
          <leafValues>
            6.9188338518142700e-01 -5.7166516780853271e-01</leafValues></_>
        <_>
          <internalNodes>
            0 -1 60 -6.7862942814826965e-03</internalNodes>
          <leafValues>
            5.3485763072967529e-01 -7.4971628189086914e-01</leafValues></_></weakClassifiers></_>
    <!-- stage 1 -->
    <_>
      <maxWeakCount>2</maxWeakCount>
      <stageThreshold>-2.1419176459312439e-01</stageThreshold>
      <weakClassifiers>
        <_>
          <internalNodes>
            0 -1 65 -5.2556216716766357e-02</internalNodes>
          <leafValues>
            7.7272725105285645e-01 -7.1052628755569458e-01</leafValues></_>
        <_>
          <internalNodes>
            0 -1 42 -1.1538545787334442e-01</internalNodes>
          <leafValues>
            4.9633455276489258e-01 -8.6934101581573486e-01</leafValues></_></weakClassifiers></_>
    <!-- stage 2 -->
    <_>
      <maxWeakCount>4</maxWeakCount>
      <stageThreshold>-1.1452039480209351e+00</stageThreshold>
      <weakClassifiers>
        <_>
          <internalNodes>
            0 -1 3 -2.1225135773420334e-02</internalNodes>
          <leafValues>
            7.0802921056747437e-01 -6.9014084339141846e-01</leafValues></_>
        <_>
          <internalNodes>
            0 -1 32 -8.4968202281743288e-04</internalNodes>
          <leafValues>
            5.4541158676147461e-01 -6.4528346061706543e-01</leafValues></_>
        <_>
          <internalNodes>
            0 -1 52 -7.9190991818904877e-03</internalNodes>
          <leafValues>
            7.5086545944213867e-01 -5.2024310827255249e-01</leafValues></_>
        <_>
          <internalNodes>
            0 -1 51 2.9739523306488991e-02</internalNodes>
          <leafValues>
            -5.6064504384994507e-01 6.1932402849197388e-01</leafValues></_></weakClassifiers></_>
    <!-- stage 3 -->
    <_>
      <maxWeakCount>4</maxWeakCount>
      <stageThreshold>-5.3846526145935059e-01</stageThreshold>
      <weakClassifiers>
        <_>
          <internalNodes>
            0 -1 27 -8.2442954182624817e-02</internalNodes>
          <leafValues>
            7.4789917469024658e-01 -4.6067416667938232e-01</leafValues></_>
        <_>
          <internalNodes>
            0 -1 17 -1.8852760549634695e-03</internalNodes>
          <leafValues>
            4.5189055800437927e-01 -9.1059327125549316e-01</leafValues></_>
        <_>
          <internalNodes>
            0 -1 10 9.6606195438653231e-04</internalNodes>
          <leafValues>
            4.1187360882759094e-01 -9.1506516933441162e-01</leafValues></_>
        <_>
          <internalNodes>
            0 -1 71 1.6150309238582850e-04</internalNodes>
          <leafValues>
            3.8538354635238647e-01 -7.8386288881301880e-01</leafValues></_></weakClassifiers></_>
    <!-- stage 4 -->
    <_>
      <maxWeakCount>5</maxWeakCount>
      <stageThreshold>-2.4989800155162811e-01</stageThreshold>
      <weakClassifiers>
        <_>
          <internalNodes>
            0 -1 75 -2.7873534709215164e-03</internalNodes>
          <leafValues>
            6.5354329347610474e-01 -4.3209877610206604e-01</leafValues></_>
        <_>
          <internalNodes>
            0 -1 31 -1.0100004076957703e-01</internalNodes>
          <leafValues>
            6.1579251289367676e-01 -4.4339019060134888e-01</leafValues></_>
        <_>
          <internalNodes>
            0 -1 0 1.1437362991273403e-04</internalNodes>
          <leafValues>
            -3.8445559144020081e-01 7.3379582166671753e-01</leafValues></_>
        <_>
          <internalNodes>
            0 -1 56 -9.3926960835233331e-04</internalNodes>
          <leafValues>
            7.7851486206054688e-01 -3.7901365756988525e-01</leafValues></_>
        <_>
          <internalNodes>
            0 -1 28 1.5531769022345543e-02</internalNodes>
          <leafValues>
            -7.5576454401016235e-01 4.6515503525733948e-01</leafValues></_></weakClassifiers></_>
    <!-- stage 5 -->
    <_>
      <maxWeakCount>5</maxWeakCount>
      <stageThreshold>-4.7822707891464233e-01</stageThreshold>
      <weakClassifiers>
        <_>
          <internalNodes>
            0 -1 29 -7.0036984980106354e-02</internalNodes>
          <leafValues>
            6.5891474485397339e-01 -4.6835443377494812e-01</leafValues></_>
        <_>
          <internalNodes>
            0 -1 69 -2.0101596601307392e-03</internalNodes>
          <leafValues>
            5.1931840181350708e-01 -6.1603158712387085e-01</leafValues></_>
        <_>
          <internalNodes>
            0 -1 64 1.4342946233227849e-03</internalNodes>
          <leafValues>
            -5.3242665529251099e-01 5.8813583850860596e-01</leafValues></_>
        <_>
          <internalNodes>
            0 -1 77 2.1857835236005485e-05</internalNodes>
          <leafValues>
            -5.8355575799942017e-01 4.7694098949432373e-01</leafValues></_>
        <_>
          <internalNodes>
            0 -1 59 -2.5414838455617428e-03</internalNodes>
          <leafValues>
            6.5472847223281860e-01 -4.5891788601875305e-01</leafValues></_></weakClassifiers></_>
    <!-- stage 6 -->
    <_>
      <maxWeakCount>6</maxWeakCount>
      <stageThreshold>-5.9243559837341309e-01</stageThreshold>
      <weakClassifiers>
        <_>
          <internalNodes>
            0 -1 80 6.0691479593515396e-03</internalNodes>
          <leafValues>
            -3.1481480598449707e-01 8.1999999284744263e-01</leafValues></_>
        <_>
          <internalNodes>
            0 -1 19 -2.0366001874208450e-02</internalNodes>
          <leafValues>
            8.3689832687377930e-01 -3.3797776699066162e-01</leafValues></_>
        <_>
          <internalNodes>
            0 -1 18 -5.3882626816630363e-03</internalNodes>
          <leafValues>
            8.9883112907409668e-01 -2.7976274490356445e-01</leafValues></_>
        <_>
          <internalNodes>
            0 -1 70 -4.9699852243065834e-03</internalNodes>
          <leafValues>
            4.6652558445930481e-01 -6.8808990716934204e-01</leafValues></_>
        <_>
          <internalNodes>
            0 -1 63 3.1644329428672791e-02</internalNodes>
          <leafValues>
            -4.7238552570343018e-01 6.0764062404632568e-01</leafValues></_>
        <_>
          <internalNodes>
            0 -1 50 -8.2163503393530846e-03</internalNodes>
          <leafValues>
            4.3788197636604309e-01 -8.2889640331268311e-01</leafValues></_></weakClassifiers></_>
    <!-- stage 7 -->
    <_>
      <maxWeakCount>5</maxWeakCount>
      <stageThreshold>1.1218949407339096e-01</stageThreshold>
      <weakClassifiers>
        <_>
          <internalNodes>
            0 -1 54 2.0260035991668701e-02</internalNodes>
          <leafValues>
            -6.4285713434219360e-01 5.5263155698776245e-01</leafValues></_>
        <_>
          <internalNodes>
            0 -1 12 -6.8846292793750763e-02</internalNodes>
          <leafValues>
            3.7386015057563782e-01 -7.4287235736846924e-01</leafValues></_>
        <_>
          <internalNodes>
            0 -1 58 -6.4174989238381386e-03</internalNodes>
          <leafValues>
            5.0842279195785522e-01 -6.3121509552001953e-01</leafValues></_>
        <_>
          <internalNodes>
            0 -1 43 -1.8461351282894611e-03</internalNodes>
          <leafValues>
            7.4396133422851563e-01 -4.8928457498550415e-01</leafValues></_>
        <_>
          <internalNodes>
            0 -1 7 3.5875511821359396e-04</internalNodes>
          <leafValues>
            3.8200119137763977e-01 -8.3344048261642456e-01</leafValues></_></weakClassifiers></_>
    <!-- stage 8 -->
    <_>
      <maxWeakCount>5</maxWeakCount>
      <stageThreshold>-1.7261044681072235e-01</stageThreshold>
      <weakClassifiers>
        <_>
          <internalNodes>
            0 -1 61 -1.9348647445440292e-02</internalNodes>
          <leafValues>
            5.0303030014038086e-01 -8.1395345926284790e-01</leafValues></_>
        <_>
          <internalNodes>
            0 -1 30 -1.9695468246936798e-02</internalNodes>
          <leafValues>
            5.0552815198898315e-01 -6.5846139192581177e-01</leafValues></_>
        <_>
          <internalNodes>
            0 -1 49 4.1766118258237839e-02</internalNodes>
          <leafValues>
            -5.0063163042068481e-01 6.3229161500930786e-01</leafValues></_>
        <_>
          <internalNodes>
            0 -1 9 6.1834332882426679e-05</internalNodes>
          <leafValues>
            3.5982033610343933e-01 -7.9420894384384155e-01</leafValues></_>
        <_>
          <internalNodes>
            0 -1 74 2.2276220261119306e-04</internalNodes>
          <leafValues>
            2.7662616968154907e-01 -8.5808432102203369e-01</leafValues></_></weakClassifiers></_>
    <!-- stage 9 -->
    <_>
      <maxWeakCount>6</maxWeakCount>
      <stageThreshold>3.8608614355325699e-02</stageThreshold>
      <weakClassifiers>
        <_>
          <internalNodes>
            0 -1 37 -1.6195755451917648e-02</internalNodes>
          <leafValues>
            1. -9.5890410244464874e-02</leafValues></_>
        <_>
          <internalNodes>
            0 -1 82 -4.9955130089074373e-04</internalNodes>
          <leafValues>
            -8.4610462188720703e-01 3.7931087613105774e-01</leafValues></_>
        <_>
          <internalNodes>
            0 -1 57 -3.4523764625191689e-03</internalNodes>
          <leafValues>
            9.1113042831420898e-01 -3.3773764967918396e-01</leafValues></_>
        <_>
          <internalNodes>
            0 -1 62 7.6313928002491593e-04</internalNodes>
          <leafValues>
            -4.1928291320800781e-01 7.0100229978561401e-01</leafValues></_>
        <_>
          <internalNodes>
            0 -1 5 2.3048669099807739e-03</internalNodes>
          <leafValues>
            -3.6775574088096619e-01 7.5164663791656494e-01</leafValues></_>
        <_>
          <internalNodes>
            0 -1 46 -3.9500430226325989e-02</internalNodes>
          <leafValues>
            9.3914562463760376e-01 -2.1592596173286438e-01</leafValues></_></weakClassifiers></_>
    <!-- stage 10 -->
    <_>
      <maxWeakCount>7</maxWeakCount>
      <stageThreshold>-5.9958559274673462e-01</stageThreshold>
      <weakClassifiers>
        <_>
          <internalNodes>
            0 -1 20 -3.1073921918869019e-01</internalNodes>
          <leafValues>
            7.7358490228652954e-01 -3.3333334326744080e-01</leafValues></_>
        <_>
          <internalNodes>
            0 -1 16 1.3992824824526906e-04</internalNodes>
          <leafValues>
            3.9939814805984497e-01 -7.4601006507873535e-01</leafValues></_>
        <_>
          <internalNodes>
            0 -1 84 -1.7781906353775412e-04</internalNodes>
          <leafValues>
            -8.7157297134399414e-01 2.8975132107734680e-01</leafValues></_>
        <_>
          <internalNodes>
            0 -1 44 -1.0841537732630968e-03</internalNodes>
          <leafValues>
            8.7644755840301514e-01 -3.6728373169898987e-01</leafValues></_>
        <_>
          <internalNodes>
            0 -1 73 1.8873852968681604e-04</internalNodes>
          <leafValues>
            3.4317418932914734e-01 -7.5242316722869873e-01</leafValues></_>
        <_>
          <internalNodes>
            0 -1 36 -1.9341918826103210e-01</internalNodes>
          <leafValues>
            5.9923440217971802e-01 -4.5787042379379272e-01</leafValues></_>
        <_>
          <internalNodes>
            0 -1 39 -1.4809746295213699e-02</internalNodes>
          <leafValues>
            7.7746635675430298e-01 -4.3492922186851501e-01</leafValues></_></weakClassifiers></_>
    <!-- stage 11 -->
    <_>
      <maxWeakCount>7</maxWeakCount>
      <stageThreshold>-4.3472582101821899e-01</stageThreshold>
      <weakClassifiers>
        <_>
          <internalNodes>
            0 -1 1 -2.4716241750866175e-04</internalNodes>
          <leafValues>
            -8.9473682641983032e-01 4.8235294222831726e-01</leafValues></_>
        <_>
          <internalNodes>
            0 -1 66 5.1775774918496609e-03</internalNodes>
          <leafValues>
            3.1148838996887207e-01 -7.6255935430526733e-01</leafValues></_>
        <_>
          <internalNodes>
            0 -1 53 -2.1895229816436768e-02</internalNodes>
          <leafValues>
            7.5313419103622437e-01 -4.1181915998458862e-01</leafValues></_>
        <_>
          <internalNodes>
            0 -1 24 1.0850752005353570e-04</internalNodes>
          <leafValues>
            2.9966044425964355e-01 -9.3677002191543579e-01</leafValues></_>
        <_>
          <internalNodes>
            0 -1 79 1.2452879920601845e-02</internalNodes>
          <leafValues>
            -5.1227235794067383e-01 5.9288340806961060e-01</leafValues></_>
        <_>
          <internalNodes>
            0 -1 72 -6.8810873199254274e-04</internalNodes>
          <leafValues>
            -1. 2.7730169892311096e-01</leafValues></_>
        <_>
          <internalNodes>
            0 -1 47 -4.6136265154927969e-05</internalNodes>
          <leafValues>
            4.9565201997756958e-01 -5.6756240129470825e-01</leafValues></_></weakClassifiers></_>
    <!-- stage 12 -->
    <_>
      <maxWeakCount>5</maxWeakCount>
      <stageThreshold>-1.3268233835697174e-01</stageThreshold>
      <weakClassifiers>
        <_>
          <internalNodes>
            0 -1 26 -2.6233989000320435e-01</internalNodes>
          <leafValues>
            6.7619049549102783e-01 -2.2330096364021301e-01</leafValues></_>
        <_>
          <internalNodes>
            0 -1 2 -2.5927281240001321e-04</internalNodes>
          <leafValues>
            -8.3766323328018188e-01 2.9674473404884338e-01</leafValues></_>
        <_>
          <internalNodes>
            0 -1 23 -3.6202203773427755e-05</internalNodes>
          <leafValues>
            4.5958802103996277e-01 -6.1280250549316406e-01</leafValues></_>
        <_>
          <internalNodes>
            0 -1 4 -1.2692075688391924e-04</internalNodes>
          <leafValues>
            -6.8551099300384521e-01 3.2245960831642151e-01</leafValues></_>
        <_>
          <internalNodes>
            0 -1 6 -1.2141874991357327e-02</internalNodes>
          <leafValues>
            -9.4456601142883301e-01 1.9269597530364990e-01</leafValues></_></weakClassifiers></_>
    <!-- stage 13 -->
    <_>
      <maxWeakCount>5</maxWeakCount>
      <stageThreshold>-2.3482754826545715e-01</stageThreshold>
      <weakClassifiers>
        <_>
          <internalNodes>
            0 -1 13 -1.1731625818356406e-05</internalNodes>
          <leafValues>
            4.7560974955558777e-01 -6.8181818723678589e-01</leafValues></_>
        <_>
          <internalNodes>
            0 -1 25 -9.1368090361356735e-03</internalNodes>
          <leafValues>
            7.7491140365600586e-01 -3.0520361661911011e-01</leafValues></_>
        <_>
          <internalNodes>
            0 -1 22 -1.3896168768405914e-01</internalNodes>
          <leafValues>
            5.6337714195251465e-01 -4.2284435033798218e-01</leafValues></_>
        <_>
          <internalNodes>
            0 -1 41 -1.8435480073094368e-02</internalNodes>
          <leafValues>
            7.3879480361938477e-01 -3.9012911915779114e-01</leafValues></_>
        <_>
          <internalNodes>
            0 -1 38 -2.6407465338706970e-02</internalNodes>
          <leafValues>
            5.2497494220733643e-01 -5.7848173379898071e-01</leafValues></_></weakClassifiers></_>
    <!-- stage 14 -->
    <_>
      <maxWeakCount>7</maxWeakCount>
      <stageThreshold>-2.1638543903827667e-01</stageThreshold>
      <weakClassifiers>
        <_>
          <internalNodes>
            0 -1 78 2.8652092441916466e-04</internalNodes>
          <leafValues>
            4.4705882668495178e-01 -7.3684209585189819e-01</leafValues></_>
        <_>
          <internalNodes>
            0 -1 34 -1.0628871619701385e-02</internalNodes>
          <leafValues>
            1. -2.4427168071269989e-01</leafValues></_>
        <_>
          <internalNodes>
            0 -1 40 2.2540499921888113e-03</internalNodes>
          <leafValues>
            -3.6920285224914551e-01 5.7907617092132568e-01</leafValues></_>
        <_>
          <internalNodes>
            0 -1 15 1.0564873082330450e-04</internalNodes>
          <leafValues>
            3.1808874011039734e-01 -7.0318776369094849e-01</leafValues></_>
        <_>
          <internalNodes>
            0 -1 33 6.2982058152556419e-03</internalNodes>
          <leafValues>
            -3.5530680418014526e-01 6.9453334808349609e-01</leafValues></_>
        <_>
          <internalNodes>
            0 -1 45 1.8048302736133337e-03</internalNodes>
          <leafValues>
            -4.4658508896827698e-01 5.6536245346069336e-01</leafValues></_>
        <_>
          <internalNodes>
            0 -1 85 -2.6219448045594618e-05</internalNodes>
          <leafValues>
            5.0683093070983887e-01 -4.8781114816665649e-01</leafValues></_></weakClassifiers></_>
    <!-- stage 15 -->
    <_>
      <maxWeakCount>6</maxWeakCount>
      <stageThreshold>-4.9194416403770447e-01</stageThreshold>
      <weakClassifiers>
        <_>
          <internalNodes>
            0 -1 67 -2.3288658121600747e-04</internalNodes>
          <leafValues>
            -8.2857143878936768e-01 4.4508671760559082e-01</leafValues></_>
        <_>
          <internalNodes>
            0 -1 14 1.3646114617586136e-02</internalNodes>
          <leafValues>
            -3.0750378966331482e-01 7.3546010255813599e-01</leafValues></_>
        <_>
          <internalNodes>
            0 -1 76 -1.1874331161379814e-02</internalNodes>
          <leafValues>
            6.2477862834930420e-01 -2.9010674357414246e-01</leafValues></_>
        <_>
          <internalNodes>
            0 -1 55 -2.9987068846821785e-03</internalNodes>
          <leafValues>
            9.0124839544296265e-01 -2.4804812669754028e-01</leafValues></_>
        <_>
          <internalNodes>
            0 -1 87 6.1749669839628041e-05</internalNodes>
          <leafValues>
            3.4056493639945984e-01 -8.3097273111343384e-01</leafValues></_>
        <_>
          <internalNodes>
            0 -1 48 -6.1255241744220257e-03</internalNodes>
          <leafValues>
            6.3305050134658813e-01 -4.3193712830543518e-01</leafValues></_></weakClassifiers></_>
    <!-- stage 16 -->
    <_>
      <maxWeakCount>6</maxWeakCount>
      <stageThreshold>-5.6880855560302734e-01</stageThreshold>
      <weakClassifiers>
        <_>
          <internalNodes>
            0 -1 83 2.1781753457617015e-04</internalNodes>
          <leafValues>
            3.9560440182685852e-01 -9.2307692766189575e-01</leafValues></_>
        <_>
          <internalNodes>
            0 -1 8 1.3856010511517525e-02</internalNodes>
          <leafValues>
            -3.4316778182983398e-01 6.8166369199752808e-01</leafValues></_>
        <_>
          <internalNodes>
            0 -1 81 5.0835055299103260e-03</internalNodes>
          <leafValues>
            -2.5918945670127869e-01 9.0170329809188843e-01</leafValues></_>
        <_>
          <internalNodes>
            0 -1 86 5.3853207646170631e-05</internalNodes>
          <leafValues>
            -3.5279288887977600e-01 6.4239877462387085e-01</leafValues></_>
        <_>
          <internalNodes>
            0 -1 68 1.3205989671405405e-04</internalNodes>
          <leafValues>
            -3.8532418012619019e-01 6.0787904262542725e-01</leafValues></_>
        <_>
          <internalNodes>
            0 -1 11 -1.0354936821386218e-03</internalNodes>
          <leafValues>
            3.7606137990951538e-01 -7.0079749822616577e-01</leafValues></_></weakClassifiers></_></stages>
  <features>
    <_>
      <rects>
        <_>
          0 0 2 4 -1.</_>
        <_>
          1 0 1 4 2.</_></rects>
      <tilted>0</tilted></_>
    <_>
      <rects>
        <_>
          0 0 5 3 -1.</_>
        <_>
          0 1 5 1 3.</_></rects>
      <tilted>0</tilted></_>
    <_>
      <rects>
        <_>
          0 8 5 3 -1.</_>
        <_>
          0 9 5 1 3.</_></rects>
      <tilted>0</tilted></_>
    <_>
      <rects>
        <_>
          0 8 12 22 -1.</_>
        <_>
          0 19 12 11 2.</_></rects>
      <tilted>0</tilted></_>
    <_>
      <rects>
        <_>
          0 11 1 4 -1.</_>
        <_>
          0 13 1 2 2.</_></rects>
      <tilted>0</tilted></_>
    <_>
      <rects>
        <_>
          0 11 6 14 -1.</_>
        <_>
          2 11 2 14 3.</_></rects>
      <tilted>0</tilted></_>
    <_>
      <rects>
        <_>
          0 15 2 20 -1.</_>
        <_>
          0 25 2 10 2.</_></rects>
      <tilted>0</tilted></_>
    <_>
      <rects>
        <_>
          0 21 1 8 -1.</_>
        <_>
          0 25 1 4 2.</_></rects>
      <tilted>0</tilted></_>
    <_>
      <rects>
        <_>
          0 25 10 14 -1.</_>
        <_>
          0 25 5 7 2.</_>
        <_>
          5 32 5 7 2.</_></rects>
      <tilted>0</tilted></_>
    <_>
      <rects>
        <_>
          0 32 1 2 -1.</_>
        <_>
          0 33 1 1 2.</_></rects>
      <tilted>0</tilted></_>
    <_>
      <rects>
        <_>
          1 0 10 4 -1.</_>
        <_>
          1 2 10 2 2.</_></rects>
      <tilted>0</tilted></_>
    <_>
      <rects>
        <_>
          1 0 19 6 -1.</_>
        <_>
          1 3 19 3 2.</_></rects>
      <tilted>0</tilted></_>
    <_>
      <rects>
        <_>
          1 0 25 36 -1.</_>
        <_>
          1 18 25 18 2.</_></rects>
      <tilted>0</tilted></_>
    <_>
      <rects>
        <_>
          1 16 11 2 -1.</_>
        <_>
          1 17 11 1 2.</_></rects>
      <tilted>0</tilted></_>
    <_>
      <rects>
        <_>
          1 28 12 12 -1.</_>
        <_>
          1 28 6 6 2.</_>
        <_>
          7 34 6 6 2.</_></rects>
      <tilted>0</tilted></_>
    <_>
      <rects>
        <_>
          2 0 4 3 -1.</_>
        <_>
          2 1 4 1 3.</_></rects>
      <tilted>0</tilted></_>
    <_>
      <rects>
        <_>
          2 2 6 2 -1.</_>
        <_>
          2 2 3 1 2.</_>
        <_>
          5 3 3 1 2.</_></rects>
      <tilted>0</tilted></_>
    <_>
      <rects>
        <_>
          2 13 18 3 -1.</_>
        <_>
          11 13 9 3 2.</_></rects>
      <tilted>0</tilted></_>
    <_>
      <rects>
        <_>
          2 19 9 12 -1.</_>
        <_>
          5 19 3 12 3.</_></rects>
      <tilted>0</tilted></_>
    <_>
      <rects>
        <_>
          2 23 18 11 -1.</_>
        <_>
          8 23 6 11 3.</_></rects>
      <tilted>0</tilted></_>
    <_>
      <rects>
        <_>
          3 4 32 36 -1.</_>
        <_>
          3 16 32 12 3.</_></rects>
      <tilted>0</tilted></_>
    <_>
      <rects>
        <_>
          3 9 36 10 -1.</_>
        <_>
          15 9 12 10 3.</_></rects>
      <tilted>0</tilted></_>
    <_>
      <rects>
        <_>
          3 12 35 24 -1.</_>
        <_>
          3 20 35 8 3.</_></rects>
      <tilted>0</tilted></_>
    <_>
      <rects>
        <_>
          4 0 1 12 -1.</_>
        <_>
          4 6 1 6 2.</_></rects>
      <tilted>0</tilted></_>
    <_>
      <rects>
        <_>
          4 19 3 2 -1.</_>
        <_>
          4 20 3 1 2.</_></rects>
      <tilted>0</tilted></_>
    <_>
      <rects>
        <_>
          4 21 6 16 -1.</_>
        <_>
          7 21 3 16 2.</_></rects>
      <tilted>0</tilted></_>
    <_>
      <rects>
        <_>
          5 7 29 33 -1.</_>
        <_>
          5 18 29 11 3.</_></rects>
      <tilted>0</tilted></_>
    <_>
      <rects>
        <_>
          6 0 32 18 -1.</_>
        <_>
          6 9 32 9 2.</_></rects>
      <tilted>0</tilted></_>
    <_>
      <rects>
        <_>
          6 9 14 28 -1.</_>
        <_>
          6 9 7 14 2.</_>
        <_>
          13 23 7 14 2.</_></rects>
      <tilted>0</tilted></_>
    <_>
      <rects>
        <_>
          6 10 13 30 -1.</_>
        <_>
          6 20 13 10 3.</_></rects>
      <tilted>0</tilted></_>
    <_>
      <rects>
        <_>
          6 14 7 24 -1.</_>
        <_>
          6 22 7 8 3.</_></rects>
      <tilted>0</tilted></_>
    <_>
      <rects>
        <_>
          7 8 33 15 -1.</_>
        <_>
          18 8 11 15 3.</_></rects>
      <tilted>0</tilted></_>
    <_>
      <rects>
        <_>
          7 14 13 4 -1.</_>
        <_>
          7 16 13 2 2.</_></rects>
      <tilted>0</tilted></_>
    <_>
      <rects>
        <_>
          8 4 9 17 -1.</_>
        <_>
          11 4 3 17 3.</_></rects>
      <tilted>0</tilted></_>
    <_>
      <rects>
        <_>
          9 2 9 11 -1.</_>
        <_>
          12 2 3 11 3.</_></rects>
      <tilted>0</tilted></_>
    <_>
      <rects>
        <_>
          9 4 16 36 -1.</_>
        <_>
          9 16 16 12 3.</_></rects>
      <tilted>0</tilted></_>
    <_>
      <rects>
        <_>
          9 4 28 33 -1.</_>
        <_>
          9 15 28 11 3.</_></rects>
      <tilted>0</tilted></_>
    <_>
      <rects>
        <_>
          10 1 12 13 -1.</_>
        <_>
          14 1 4 13 3.</_></rects>
      <tilted>0</tilted></_>
    <_>
      <rects>
        <_>
          10 15 30 9 -1.</_>
        <_>
          20 15 10 9 3.</_></rects>
      <tilted>0</tilted></_>
    <_>
      <rects>
        <_>
          10 29 29 9 -1.</_>
        <_>
          10 32 29 3 3.</_></rects>
      <tilted>0</tilted></_>
    <_>
      <rects>
        <_>
          11 25 18 4 -1.</_>
        <_>
          17 25 6 4 3.</_></rects>
      <tilted>0</tilted></_>
    <_>
      <rects>
        <_>
          11 27 26 12 -1.</_>
        <_>
          11 31 26 4 3.</_></rects>
      <tilted>0</tilted></_>
    <_>
      <rects>
        <_>
          12 1 20 39 -1.</_>
        <_>
          12 14 20 13 3.</_></rects>
      <tilted>0</tilted></_>
    <_>
      <rects>
        <_>
          12 11 9 5 -1.</_>
        <_>
          15 11 3 5 3.</_></rects>
      <tilted>0</tilted></_>
    <_>
      <rects>
        <_>
          13 2 6 3 -1.</_>
        <_>
          15 2 2 3 3.</_></rects>
      <tilted>0</tilted></_>
    <_>
      <rects>
        <_>
          13 4 9 9 -1.</_>
        <_>
          13 7 9 3 3.</_></rects>
      <tilted>0</tilted></_>
    <_>
      <rects>
        <_>
          13 5 15 21 -1.</_>
        <_>
          18 5 5 21 3.</_></rects>
      <tilted>0</tilted></_>
    <_>
      <rects>
        <_>
          13 24 3 7 -1.</_>
        <_>
          14 24 1 7 3.</_></rects>
      <tilted>0</tilted></_>
    <_>
      <rects>
        <_>
          14 7 12 7 -1.</_>
        <_>
          18 7 4 7 3.</_></rects>
      <tilted>0</tilted></_>
    <_>
      <rects>
        <_>
          15 21 16 16 -1.</_>
        <_>
          15 29 16 8 2.</_></rects>
      <tilted>0</tilted></_>
    <_>
      <rects>
        <_>
          16 1 1 39 -1.</_>
        <_>
          16 14 1 13 3.</_></rects>
      <tilted>0</tilted></_>
    <_>
      <rects>
        <_>
          17 12 7 28 -1.</_>
        <_>
          17 26 7 14 2.</_></rects>
      <tilted>0</tilted></_>
    <_>
      <rects>
        <_>
          18 10 15 6 -1.</_>
        <_>
          23 10 5 6 3.</_></rects>
      <tilted>0</tilted></_>
    <_>
      <rects>
        <_>
          19 22 20 12 -1.</_>
        <_>
          19 22 10 6 2.</_>
        <_>
          29 28 10 6 2.</_></rects>
      <tilted>0</tilted></_>
    <_>
      <rects>
        <_>
          21 7 18 13 -1.</_>
        <_>
          30 7 9 13 2.</_></rects>
      <tilted>0</tilted></_>
    <_>
      <rects>
        <_>
          22 0 2 38 -1.</_>
        <_>
          23 0 1 38 2.</_></rects>
      <tilted>0</tilted></_>
    <_>
      <rects>
        <_>
          22 2 2 20 -1.</_>
        <_>
          23 2 1 20 2.</_></rects>
      <tilted>0</tilted></_>
    <_>
      <rects>
        <_>
          24 3 6 14 -1.</_>
        <_>
          26 3 2 14 3.</_></rects>
      <tilted>0</tilted></_>
    <_>
      <rects>
        <_>
          25 19 15 11 -1.</_>
        <_>
          30 19 5 11 3.</_></rects>
      <tilted>0</tilted></_>
    <_>
      <rects>
        <_>
          25 25 10 8 -1.</_>
        <_>
          25 25 5 4 2.</_>
        <_>
          30 29 5 4 2.</_></rects>
      <tilted>0</tilted></_>
    <_>
      <rects>
        <_>
          26 4 2 36 -1.</_>
        <_>
          26 16 2 12 3.</_></rects>
      <tilted>0</tilted></_>
    <_>
      <rects>
        <_>
          26 4 14 30 -1.</_>
        <_>
          26 19 14 15 2.</_></rects>
      <tilted>0</tilted></_>
    <_>
      <rects>
        <_>
          26 27 4 12 -1.</_>
        <_>
          26 27 2 6 2.</_>
        <_>
          28 33 2 6 2.</_></rects>
      <tilted>0</tilted></_>
    <_>
      <rects>
        <_>
          27 3 10 23 -1.</_>
        <_>
          32 3 5 23 2.</_></rects>
      <tilted>0</tilted></_>
    <_>
      <rects>
        <_>
          27 30 2 10 -1.</_>
        <_>
          27 35 2 5 2.</_></rects>
      <tilted>0</tilted></_>
    <_>
      <rects>
        <_>
          28 0 9 36 -1.</_>
        <_>
          28 18 9 18 2.</_></rects>
      <tilted>0</tilted></_>
    <_>
      <rects>
        <_>
          28 14 12 9 -1.</_>
        <_>
          28 17 12 3 3.</_></rects>
      <tilted>0</tilted></_>
    <_>
      <rects>
        <_>
          28 37 5 3 -1.</_>
        <_>
          28 38 5 1 3.</_></rects>
      <tilted>0</tilted></_>
    <_>
      <rects>
        <_>
          29 8 6 1 -1.</_>
        <_>
          31 8 2 1 3.</_></rects>
      <tilted>0</tilted></_>
    <_>
      <rects>
        <_>
          29 11 10 6 -1.</_>
        <_>
          29 14 10 3 2.</_></rects>
      <tilted>0</tilted></_>
    <_>
      <rects>
        <_>
          29 13 2 27 -1.</_>
        <_>
          29 22 2 9 3.</_></rects>
      <tilted>0</tilted></_>
    <_>
      <rects>
        <_>
          30 0 9 2 -1.</_>
        <_>
          30 1 9 1 2.</_></rects>
      <tilted>0</tilted></_>
    <_>
      <rects>
        <_>
          31 22 9 3 -1.</_>
        <_>
          31 23 9 1 3.</_></rects>
      <tilted>0</tilted></_>
    <_>
      <rects>
        <_>
          32 6 8 2 -1.</_>
        <_>
          32 6 4 1 2.</_>
        <_>
          36 7 4 1 2.</_></rects>
      <tilted>0</tilted></_>
    <_>
      <rects>
        <_>
          32 7 7 3 -1.</_>
        <_>
          32 8 7 1 3.</_></rects>
      <tilted>0</tilted></_>
    <_>
      <rects>
        <_>
          32 18 3 18 -1.</_>
        <_>
          32 24 3 6 3.</_></rects>
      <tilted>0</tilted></_>
    <_>
      <rects>
        <_>
          32 24 8 16 -1.</_>
        <_>
          32 24 4 8 2.</_>
        <_>
          36 32 4 8 2.</_></rects>
      <tilted>0</tilted></_>
    <_>
      <rects>
        <_>
          33 1 6 2 -1.</_>
        <_>
          35 1 2 2 3.</_></rects>
      <tilted>0</tilted></_>
    <_>
      <rects>
        <_>
          33 6 7 3 -1.</_>
        <_>
          33 7 7 1 3.</_></rects>
      <tilted>0</tilted></_>
    <_>
      <rects>
        <_>
          34 2 6 28 -1.</_>
        <_>
          34 2 3 14 2.</_>
        <_>
          37 16 3 14 2.</_></rects>
      <tilted>0</tilted></_>
    <_>
      <rects>
        <_>
          34 7 6 20 -1.</_>
        <_>
          34 7 3 10 2.</_>
        <_>
          37 17 3 10 2.</_></rects>
      <tilted>0</tilted></_>
    <_>
      <rects>
        <_>
          36 7 4 20 -1.</_>
        <_>
          36 7 2 10 2.</_>
        <_>
          38 17 2 10 2.</_></rects>
      <tilted>0</tilted></_>
    <_>
      <rects>
        <_>
          36 15 2 6 -1.</_>
        <_>
          36 17 2 2 3.</_></rects>
      <tilted>0</tilted></_>
    <_>
      <rects>
        <_>
          37 0 3 3 -1.</_>
        <_>
          37 1 3 1 3.</_></rects>
      <tilted>0</tilted></_>
    <_>
      <rects>
        <_>
          37 7 3 3 -1.</_>
        <_>
          37 8 3 1 3.</_></rects>
      <tilted>0</tilted></_>
    <_>
      <rects>
        <_>
          37 8 3 2 -1.</_>
        <_>
          37 9 3 1 2.</_></rects>
      <tilted>0</tilted></_>
    <_>
      <rects>
        <_>
          37 10 3 4 -1.</_>
        <_>
          38 10 1 4 3.</_></rects>
      <tilted>0</tilted></_>
    <_>
      <rects>
        <_>
          39 22 1 2 -1.</_>
        <_>
          39 23 1 1 2.</_></rects>
      <tilted>0</tilted></_></features></cascade>
</opencv_storage>
