<?xml version="1.0"?>
<opencv_storage>
<cascade>
  <stageType>BOOST</stageType>
  <featureType>HAAR</featureType>
  <height>24</height>
  <width>24</width>
  <stageParams>
    <boostType>GAB</boostType>
    <minHitRate>9.9500000476837158e-01</minHitRate>
    <maxFalseAlarm>5.0000000000000000e-01</maxFalseAlarm>
    <weightTrimRate>9.4999999999999996e-01</weightTrimRate>
    <maxDepth>1</maxDepth>
    <maxWeakCount>100</maxWeakCount></stageParams>
  <featureParams>
    <maxCatCount>0</maxCatCount>
    <featSize>1</featSize>
    <mode>BASIC</mode></featureParams>
  <stageNum>6</stageNum>
  <stages>
    <!-- stage 0 -->
    <_>
      <maxWeakCount>3</maxWeakCount>
      <stageThreshold>-5.1011437177658081e-01</stageThreshold>
      <weakClassifiers>
        <_>
          <internalNodes>
            0 -1 12 -7.4480921030044556e-02</internalNodes>
          <leafValues>
            7.4545454978942871e-01 -5.7142859697341919e-01</leafValues></_>
        <_>
          <internalNodes>
            0 -1 19 3.5363092320039868e-04</internalNodes>
          <leafValues>
            5.3531467914581299e-01 -8.4276193380355835e-01</leafValues></_>
        <_>
          <internalNodes>
            0 -1 10 -1.5962955076247454e-03</internalNodes>
          <leafValues>
            8.6113798618316650e-01 -4.7400051355361938e-01</leafValues></_></weakClassifiers></_>
    <!-- stage 1 -->
    <_>
      <maxWeakCount>3</maxWeakCount>
      <stageThreshold>-2.1071393042802811e-02</stageThreshold>
      <weakClassifiers>
        <_>
          <internalNodes>
            0 -1 11 -4.7730498015880585e-02</internalNodes>
          <leafValues>
            8.3999997377395630e-01 -5.3191488981246948e-01</leafValues></_>
        <_>
          <internalNodes>
            0 -1 3 1.6678399406373501e-03</internalNodes>
          <leafValues>
            -4.5458775758743286e-01 8.8092344999313354e-01</leafValues></_>
        <_>
          <internalNodes>
            0 -1 9 3.0397538095712662e-02</internalNodes>
          <leafValues>
            -3.7007993459701538e-01 1.</leafValues></_></weakClassifiers></_>
    <!-- stage 2 -->
    <_>
      <maxWeakCount>3</maxWeakCount>
      <stageThreshold>-1.4381028711795807e-01</stageThreshold>
      <weakClassifiers>
        <_>
          <internalNodes>
            0 -1 4 -3.5124886780977249e-03</internalNodes>
          <leafValues>
            7.8260868787765503e-01 -3.7254902720451355e-01</leafValues></_>
        <_>
          <internalNodes>
            0 -1 7 1.6848070081323385e-03</internalNodes>
          <leafValues>
            -5.5275201797485352e-01 6.8886983394622803e-01</leafValues></_>
        <_>
          <internalNodes>
            0 -1 14 -3.1317060347646475e-03</internalNodes>
          <leafValues>
            9.5765352249145508e-01 -3.7366694211959839e-01</leafValues></_></weakClassifiers></_>
    <!-- stage 3 -->
    <_>
      <maxWeakCount>4</maxWeakCount>
      <stageThreshold>-2.3785369098186493e-01</stageThreshold>
      <weakClassifiers>
        <_>
          <internalNodes>
            0 -1 13 -1.0540643706917763e-02</internalNodes>
          <leafValues>
            9.4285714626312256e-01 -2.5806450843811035e-01</leafValues></_>
        <_>
          <internalNodes>
            0 -1 15 5.8496173005551100e-04</internalNodes>
          <leafValues>
            -3.8411146402359009e-01 7.7309900522232056e-01</leafValues></_>
        <_>
          <internalNodes>
            0 -1 5 -5.9060100466012955e-03</internalNodes>
          <leafValues>
            8.6747920513153076e-01 -4.3022674322128296e-01</leafValues></_>
        <_>
          <internalNodes>
            0 -1 16 -3.7911194376647472e-03</internalNodes>
          <leafValues>
            1. -3.2266145944595337e-01</leafValues></_></weakClassifiers></_>
    <!-- stage 4 -->
    <_>
      <maxWeakCount>4</maxWeakCount>
      <stageThreshold>-2.4681292474269867e-02</stageThreshold>
      <weakClassifiers>
        <_>
          <internalNodes>
            0 -1 1 -8.1975152716040611e-03</internalNodes>
          <leafValues>
            8.0487805604934692e-01 -2.8571429848670959e-01</leafValues></_>
        <_>
          <internalNodes>
            0 -1 17 3.2651660148985684e-04</internalNodes>
          <leafValues>
            5.5656975507736206e-01 -6.0715067386627197e-01</leafValues></_>
        <_>
          <internalNodes>
            0 -1 2 4.5250995754031464e-05</internalNodes>
          <leafValues>
            -5.3182363510131836e-01 6.1758053302764893e-01</leafValues></_>
        <_>
          <internalNodes>
            0 -1 0 -1.8851548433303833e-02</internalNodes>
          <leafValues>
            -9.1311728954315186e-01 4.8446512222290039e-01</leafValues></_></weakClassifiers></_>
    <!-- stage 5 -->
    <_>
      <maxWeakCount>3</maxWeakCount>
      <stageThreshold>2.4701419472694397e-01</stageThreshold>
      <weakClassifiers>
        <_>
          <internalNodes>
            0 -1 8 -5.2164588123559952e-03</internalNodes>
          <leafValues>
            1. -1.9402985274791718e-01</leafValues></_>
        <_>
          <internalNodes>
            0 -1 6 -3.9498182013630867e-03</internalNodes>
          <leafValues>
            8.4510338306427002e-01 -3.5866335034370422e-01</leafValues></_>
        <_>
          <internalNodes>
            0 -1 18 -3.9449735777452588e-04</internalNodes>
          <leafValues>
            8.4126722812652588e-01 -3.9432245492935181e-01</leafValues></_></weakClassifiers></_></stages>
  <features>
    <_>
      <rects>
        <_>
          0 3 12 3 -1.</_>
        <_>
          6 3 6 3 2.</_></rects>
      <tilted>0</tilted></_>
    <_>
      <rects>
        <_>
          0 5 8 8 -1.</_>
        <_>
          0 5 4 4 2.</_>
        <_>
          4 9 4 4 2.</_></rects>
      <tilted>0</tilted></_>
    <_>
      <rects>
        <_>
          2 3 6 3 -1.</_>
        <_>
          2 4 6 1 3.</_></rects>
      <tilted>0</tilted></_>
    <_>
      <rects>
        <_>
          2 5 6 2 -1.</_>
        <_>
          4 5 2 2 3.</_></rects>
      <tilted>0</tilted></_>
    <_>
      <rects>
        <_>
          3 10 18 2 -1.</_>
        <_>
          3 11 18 1 2.</_></rects>
      <tilted>0</tilted></_>
    <_>
      <rects>
        <_>
          4 13 6 5 -1.</_>
        <_>
          6 13 2 5 3.</_></rects>
      <tilted>0</tilted></_>
    <_>
      <rects>
        <_>
          6 8 6 4 -1.</_>
        <_>
          8 8 2 4 3.</_></rects>
      <tilted>0</tilted></_>
    <_>
      <rects>
        <_>
          7 3 2 20 -1.</_>
        <_>
          7 3 1 10 2.</_>
        <_>
          8 13 1 10 2.</_></rects>
      <tilted>0</tilted></_>
    <_>
      <rects>
        <_>
          8 1 6 4 -1.</_>
        <_>
          10 1 2 4 3.</_></rects>
      <tilted>0</tilted></_>
    <_>
      <rects>
        <_>
          8 13 12 6 -1.</_>
        <_>
          8 16 12 3 2.</_></rects>
      <tilted>0</tilted></_>
    <_>
      <rects>
        <_>
          9 11 6 2 -1.</_>
        <_>
          11 11 2 2 3.</_></rects>
      <tilted>0</tilted></_>
    <_>
      <rects>
        <_>
          12 3 5 18 -1.</_>
        <_>
          12 9 5 6 3.</_></rects>
      <tilted>0</tilted></_>
    <_>
      <rects>
        <_>
          12 3 9 21 -1.</_>
        <_>
          12 10 9 7 3.</_></rects>
      <tilted>0</tilted></_>
    <_>
      <rects>
        <_>
          12 8 6 4 -1.</_>
        <_>
          12 10 6 2 2.</_></rects>
      <tilted>0</tilted></_>
    <_>
      <rects>
        <_>
          14 0 3 15 -1.</_>
        <_>
          15 0 1 15 3.</_></rects>
      <tilted>0</tilted></_>
    <_>
      <rects>
        <_>
          17 2 3 4 -1.</_>
        <_>
          18 2 1 4 3.</_></rects>
      <tilted>0</tilted></_>
    <_>
      <rects>
        <_>
          17 9 3 12 -1.</_>
        <_>
          18 9 1 12 3.</_></rects>
      <tilted>0</tilted></_>
    <_>
      <rects>
        <_>
          18 10 3 4 -1.</_>
        <_>
          18 12 3 2 2.</_></rects>
      <tilted>0</tilted></_>
    <_>
      <rects>
        <_>
          19 21 3 2 -1.</_>
        <_>
          20 21 1 2 3.</_></rects>
      <tilted>0</tilted></_>
    <_>
      <rects>
        <_>
          22 6 2 3 -1.</_>
        <_>
          22 7 2 1 3.</_></rects>
      <tilted>0</tilted></_></features></cascade>
</opencv_storage>
